{
  "type": "NeuralNetwork",
  "sizes": [
    40,
    60,
    6
  ],
  "layers": [
    {
      "weights": [],
      "biases": []
    },
    {
      "weights": [
        [
          0.04541703313589096,
          -0.02229238674044609,
          -0.006987538654357195,
          -0.2289041429758072,
          0.008886001072824001,
          -0.17446283996105194,
          0.027620231732726097,
          0.10505536198616028,
          0.10864794254302979,
          0.2844596207141876,
          0.2892504632472992,
          0.29247093200683594,
          0.2194640040397644,
          0.1713826209306717,
          -0.2671324610710144,
          0.05319613963365555,
          -0.24633850157260895,
          0.017727801576256752,
          0.0475834496319294,
          -0.09826172143220901,
          0.011616021394729614,
          0.20593556761741638,
          -0.029567809775471687,
          -0.13780857622623444,
          0.05086171254515648,
          -0.01214712392538786,
          0.5374889969825745,
          0.3304705023765564,
          0.2899375855922699,
          -0.10965608060359955,
          -0.6635159850120544,
          -0.053339142352342606,
          0.1504744589328766,
          -0.2586456835269928,
          -0.20609161257743835,
          -0.6781503558158875,
          -0.3106010854244232,
          0.18236544728279114,
          -0.2160528600215912,
          -0.28590115904808044
        ],
        [
          0.04035758227109909,
          -0.12585704028606415,
          0.05838300660252571,
          0.17906759679317474,
          -0.12771174311637878,
          -0.07563386857509613,
          0.1443706899881363,
          0.043592240661382675,
          -0.07974360883235931,
          0.009582321159541607,
          0.153779536485672,
          0.15594546496868134,
          0.08856064826250076,
          0.008135109208524227,
          0.16623444855213165,
          -0.17793497443199158,
          -0.027774464339017868,
          -0.14731888473033905,
          0.1604887694120407,
          0.15302711725234985,
          0.05998433381319046,
          0.04932965710759163,
          -0.10498927533626556,
          0.18003907799720764,
          0.14623981714248657,
          -0.07128069549798965,
          -0.06532043218612671,
          0.12822125852108002,
          0.21850022673606873,
          -0.03823374584317207,
          -0.11038770526647568,
          0.06012685224413872,
          0.21190114319324493,
          -0.006519600749015808,
          0.10498318821191788,
          -0.1379275918006897,
          -0.15275390446186066,
          -0.0852358341217041,
          0.03644946217536926,
          -0.08276066184043884
        ],
        [
          0.08700065314769745,
          0.11659760773181915,
          0.27742862701416016,
          0.15547582507133484,
          0.08817678689956665,
          0.043772339820861816,
          0.05775509774684906,
          -0.15628530085086823,
          -0.10001558065414429,
          -0.17898668348789215,
          -0.01609291508793831,
          -0.04520173743367195,
          0.10765627026557922,
          0.13967327773571014,
          -0.023035675287246704,
          -0.23920981585979462,
          -0.08618520945310593,
          -0.13229317963123322,
          0.031077710911631584,
          -0.052541542798280716,
          -0.17960406839847565,
          -0.002502357354387641,
          0.02501201257109642,
          0.10049822926521301,
          0.19762519001960754,
          -0.06202714145183563,
          0.010445545427501202,
          0.06147724390029907,
          -0.007107546087354422,
          -0.22481268644332886,
          -0.4364211857318878,
          -0.010743369348347187,
          -0.4873828887939453,
          -0.4904104173183441,
          -0.22578366100788116,
          -0.42191097140312195,
          -0.24606235325336456,
          0.3599713146686554,
          0.48451197147369385,
          -0.13147489726543427
        ],
        [
          -0.03667926788330078,
          -0.06531894952058792,
          0.054275281727313995,
          0.03896667808294296,
          -0.13637486100196838,
          0.26082825660705566,
          -0.05908307060599327,
          -0.10330019146203995,
          -0.23089197278022766,
          -0.0527447834610939,
          -0.06427659839391708,
          -0.2585681676864624,
          -0.14857959747314453,
          -0.09866933524608612,
          -0.031678829342126846,
          0.010670873336493969,
          0.08621504157781601,
          0.20202814042568207,
          0.03332642465829849,
          0.08021099865436554,
          0.1990223228931427,
          0.2706599533557892,
          0.24563856422901154,
          -0.3918941617012024,
          -0.37763500213623047,
          0.1322316974401474,
          0.33509889245033264,
          0.11993581801652908,
          0.13946913182735443,
          0.4758632183074951,
          0.40847712755203247,
          0.07149197906255722,
          -0.21572358906269073,
          -0.2228941172361374,
          -0.04931988939642906,
          -0.10697950422763824,
          -0.07230017334222794,
          0.18599869310855865,
          0.0959419459104538,
          0.011287876404821873
        ],
        [
          -0.04507187008857727,
          -0.019454851746559143,
          -0.10652261972427368,
          -0.12750813364982605,
          0.11194305866956711,
          0.10538161545991898,
          0.12354901432991028,
          -0.1398867964744568,
          -0.15919627249240875,
          0.1035897433757782,
          0.12155526876449585,
          0.020214973017573357,
          -0.07547880709171295,
          0.06415145844221115,
          -0.14522206783294678,
          0.06481936573982239,
          -0.16016936302185059,
          0.09840855002403259,
          -0.06843256950378418,
          -0.12423131614923477,
          0.0002928751055151224,
          -0.014367521740496159,
          -0.25303971767425537,
          -0.2292158007621765,
          0.20713557302951813,
          0.12644490599632263,
          0.13211260735988617,
          0.06345301121473312,
          0.008243344724178314,
          -0.04766688868403435,
          -0.08986487239599228,
          -0.16274815797805786,
          0.023777611553668976,
          0.058907248079776764,
          0.06025779992341995,
          0.015625186264514923,
          -0.1562305986881256,
          0.11275118589401245,
          0.10474613308906555,
          0.0933775007724762
        ],
        [
          -0.31551310420036316,
          -0.032785385847091675,
          -0.09615086764097214,
          -0.04015052318572998,
          -0.07365411520004272,
          0.21911907196044922,
          -0.12528692185878754,
          -0.04709790274500847,
          -0.181479811668396,
          0.032020241022109985,
          -0.028532657772302628,
          0.1564687043428421,
          -0.18699432909488678,
          -0.05418534576892853,
          -0.15897515416145325,
          -0.07828237861394882,
          -0.1335589438676834,
          0.07359640300273895,
          0.12358292192220688,
          -0.08027385920286179,
          -0.0076920147985219955,
          -0.3099973499774933,
          -0.048878706991672516,
          0.08157379180192947,
          -0.02640802226960659,
          0.09570389240980148,
          0.23117561638355255,
          0.1359495371580124,
          -0.056041087955236435,
          0.19311988353729248,
          -0.0772586315870285,
          0.005747565999627113,
          0.0876324474811554,
          0.1322678178548813,
          -0.02719382382929325,
          -0.14289520680904388,
          0.12138909101486206,
          0.15298235416412354,
          -0.10813484340906143,
          -0.08612949401140213
        ],
        [
          -0.21860358119010925,
          0.20500174164772034,
          -0.05294987931847572,
          -0.11947121471166611,
          0.1739339530467987,
          -0.16766460239887238,
          -0.1643427163362503,
          -0.04027031362056732,
          0.12345103919506073,
          -0.02879289723932743,
          -0.12926256656646729,
          -0.02966931089758873,
          0.12775878608226776,
          0.09664974361658096,
          0.004450025036931038,
          -0.21700868010520935,
          -0.2551290690898895,
          -0.0499478280544281,
          0.07541900873184204,
          -0.019689733162522316,
          -0.14742334187030792,
          0.029013067483901978,
          0.19347673654556274,
          0.18261155486106873,
          -0.32993587851524353,
          -0.45087930560112,
          -0.21855829656124115,
          -0.15607556700706482,
          -0.23307403922080994,
          0.2263934165239334,
          0.2596789002418518,
          0.3438253700733185,
          0.09896112233400345,
          -0.015458200126886368,
          0.15229199826717377,
          0.14138446748256683,
          0.20488910377025604,
          0.2335379719734192,
          0.08156674355268478,
          0.06209786608815193
        ],
        [
          -0.2983384132385254,
          -0.14482657611370087,
          0.1448337435722351,
          -0.11776445060968399,
          0.04983833432197571,
          0.1967308223247528,
          -0.04493261128664017,
          0.10603346675634384,
          -0.005055215209722519,
          -0.1424221694469452,
          0.1852869987487793,
          0.19224025309085846,
          0.05759959667921066,
          0.12342968583106995,
          0.07996581494808197,
          -0.06934656202793121,
          0.13299258053302765,
          0.05403444916009903,
          -0.1629001647233963,
          -0.06576351076364517,
          -0.04087020084261894,
          -0.1646367758512497,
          -0.022336002439260483,
          -0.08252721279859543,
          -0.06442049890756607,
          -0.13200441002845764,
          -0.13238058984279633,
          0.04251230135560036,
          -0.024624841287732124,
          0.2311403453350067,
          0.11051225662231445,
          -0.043538499623537064,
          -0.18608510494232178,
          -0.1908993273973465,
          0.20934854447841644,
          0.13057687878608704,
          0.10201802104711533,
          -0.1253863126039505,
          0.03679812699556351,
          -0.178541362285614
        ],
        [
          0.2679486870765686,
          -0.1661045402288437,
          0.04210107401013374,
          0.006457619834691286,
          -0.11804108321666718,
          -0.02442965842783451,
          -0.017148056998848915,
          0.08550886064767838,
          0.2036084681749344,
          0.2173318862915039,
          0.1669398993253708,
          -0.14121554791927338,
          0.10952765494585037,
          0.1281125545501709,
          -0.13651660084724426,
          -0.01660863868892193,
          -0.05315053462982178,
          0.18865087628364563,
          -0.1982974261045456,
          -0.15275396406650543,
          -0.23067103326320648,
          0.05288559943437576,
          0.04185850918292999,
          -0.16290979087352753,
          -0.06508076190948486,
          -0.23088523745536804,
          -0.004079246427863836,
          -0.20442765951156616,
          -0.04171823710203171,
          -0.05202804505825043,
          -0.048537153750658035,
          0.22547166049480438,
          -0.13749873638153076,
          0.08319185674190521,
          0.18275105953216553,
          0.044409144669771194,
          -0.10344475507736206,
          0.0884244441986084,
          -0.03164983540773392,
          -0.016698122024536133
        ],
        [
          0.21701255440711975,
          -0.2403915673494339,
          -0.020016677677631378,
          -0.058377042412757874,
          -0.025325080379843712,
          0.057946305721998215,
          -0.06949899345636368,
          -0.19541460275650024,
          -0.001788307330571115,
          -0.06677746027708054,
          0.04686491936445236,
          0.07613921165466309,
          0.0025832674000412226,
          0.22330468893051147,
          0.08291582018136978,
          0.22390028834342957,
          0.05553760752081871,
          0.04015522077679634,
          0.057422854006290436,
          -0.06409343332052231,
          0.06835385411977768,
          -0.32631394267082214,
          -0.36884111166000366,
          0.079196497797966,
          0.5244978666305542,
          0.3104420006275177,
          -0.2660260498523712,
          -0.4151962399482727,
          -0.28700390458106995,
          -0.43730366230010986,
          -0.028852948918938637,
          -0.060154128819704056,
          0.10841303318738937,
          0.06904033571481705,
          0.022327890619635582,
          -0.0039718435145914555,
          -0.10508216917514801,
          -0.37852615118026733,
          0.21008843183517456,
          0.1385824978351593
        ],
        [
          0.2309691309928894,
          0.05954471975564957,
          0.20811103284358978,
          0.1388813555240631,
          -0.019826259464025497,
          0.13493816554546356,
          0.02852146327495575,
          -0.1303269863128662,
          0.02472984604537487,
          0.11627251654863358,
          -0.007133823353797197,
          -0.01819656789302826,
          0.28859034180641174,
          0.02675882913172245,
          0.13090252876281738,
          -0.02216198854148388,
          0.11452784389257431,
          0.15943700075149536,
          -0.08577100187540054,
          0.17602810263633728,
          0.06633063405752182,
          -0.10576429963111877,
          0.15395277738571167,
          0.04970654845237732,
          0.3613927364349365,
          -0.06204671412706375,
          0.3295578360557556,
          0.2225540578365326,
          0.38081449270248413,
          0.45322853326797485,
          -0.1727464646100998,
          0.01233737450093031,
          -0.14303633570671082,
          -0.5382585525512695,
          -0.366362601518631,
          -0.49070119857788086,
          -0.2831087112426758,
          0.23172906041145325,
          -0.23012886941432953,
          -0.3665797710418701
        ],
        [
          -0.05465816333889961,
          -0.12261562049388885,
          -0.22247624397277832,
          0.09651000797748566,
          0.04004865884780884,
          -0.15504968166351318,
          -0.03913576528429985,
          -0.12663666903972626,
          0.06465290486812592,
          -0.04952619969844818,
          -0.030854741111397743,
          -0.20589572191238403,
          -0.0020994346123188734,
          0.03592865914106369,
          -0.012602189555764198,
          0.14780429005622864,
          -0.1602015644311905,
          0.0562405064702034,
          0.04964028298854828,
          -0.0022856967989355326,
          0.03540078550577164,
          -0.48315614461898804,
          -0.12190786004066467,
          0.06728161871433258,
          -0.051202356815338135,
          -0.04658782482147217,
          0.1647101640701294,
          -0.07977329939603806,
          -0.0275497417896986,
          -0.07331586629152298,
          -0.12624351680278778,
          -0.08798126131296158,
          0.0760129913687706,
          -0.013304161839187145,
          -0.020826274529099464,
          -0.16554976999759674,
          -0.09592372924089432,
          -0.016700107604265213,
          -0.08957342803478241,
          -0.01982232928276062
        ],
        [
          -0.03824203461408615,
          -0.022682376205921173,
          0.03110395185649395,
          0.006745526567101479,
          -0.3037090599536896,
          -0.24159640073776245,
          -0.20556510984897614,
          0.02680143155157566,
          -0.12867404520511627,
          -0.19497396051883698,
          -0.041264232248067856,
          -0.0283786840736866,
          -0.21541841328144073,
          -0.06793000549077988,
          -0.1056315004825592,
          -0.05150877311825752,
          -0.011021428741514683,
          0.050996359437704086,
          -0.03403402119874954,
          0.15342311561107635,
          -0.13170577585697174,
          -0.11850892752408981,
          0.3407524824142456,
          -0.1719435304403305,
          -0.12370078265666962,
          -0.3791978359222412,
          -0.33868709206581116,
          -0.18893560767173767,
          0.42662909626960754,
          0.5612510442733765,
          0.27918657660484314,
          -0.5148769617080688,
          -0.23224982619285583,
          -0.07624786347150803,
          0.047882743179798126,
          0.3128949701786041,
          0.15762069821357727,
          0.10453388094902039,
          -0.059276144951581955,
          -0.10195577889680862
        ],
        [
          -0.19808894395828247,
          0.06298118829727173,
          0.1640792340040207,
          0.026403920724987984,
          -0.04753507673740387,
          -0.14510957896709442,
          0.16773879528045654,
          0.05082763358950615,
          -0.00023343197244685143,
          -0.1506754755973816,
          -0.04380796104669571,
          0.1347077488899231,
          -0.09402386844158173,
          -0.08310376852750778,
          -0.012362729758024216,
          0.13239642977714539,
          0.15861119329929352,
          -0.09483880549669266,
          0.16702407598495483,
          -0.09865289181470871,
          0.027776392176747322,
          -0.2867482304573059,
          -0.2621114253997803,
          0.0519101545214653,
          0.07335341721773148,
          0.017434099689126015,
          -0.0806204304099083,
          -0.11412550508975983,
          0.16096395254135132,
          -0.14269177615642548,
          0.018315663561224937,
          0.14388088881969452,
          0.10972440242767334,
          0.02022211067378521,
          -0.06877277791500092,
          -0.1871880292892456,
          -0.02275313250720501,
          -0.09780760109424591,
          0.03670812398195267,
          -0.16389311850070953
        ],
        [
          0.1555129736661911,
          -0.2216978371143341,
          0.17748810350894928,
          -0.12606099247932434,
          -0.09905820339918137,
          -0.08735939860343933,
          -0.025153545662760735,
          -0.22756752371788025,
          -0.1932043731212616,
          -0.2540040910243988,
          0.021331915631890297,
          -0.2017126828432083,
          -0.1831509917974472,
          0.09969127923250198,
          -0.18517661094665527,
          0.12911447882652283,
          0.05726544186472893,
          -0.06895546615123749,
          0.15991319715976715,
          -0.07284215092658997,
          0.016000645235180855,
          0.21066203713417053,
          -0.07848364114761353,
          0.1725117713212967,
          0.006965487264096737,
          0.13661536574363708,
          0.13961899280548096,
          0.0009726359858177602,
          0.1060388907790184,
          0.11876422166824341,
          -0.10493800044059753,
          -0.0623435340821743,
          -0.05705048516392708,
          0.11494746059179306,
          0.09686125814914703,
          0.17498216032981873,
          -0.09625792503356934,
          -0.1079946756362915,
          -0.17434684932231903,
          0.03488194942474365
        ],
        [
          -0.20156867802143097,
          -0.17652404308319092,
          -0.021443378180265427,
          0.2065807580947876,
          -0.02515902742743492,
          0.1288718432188034,
          0.08907768875360489,
          -0.11687042564153671,
          -0.049494557082653046,
          0.007397869136184454,
          0.1426013857126236,
          0.06383616477251053,
          0.0181023757904768,
          0.1447051763534546,
          -0.04103370010852814,
          -0.07892078906297684,
          -0.0642336830496788,
          0.10452671349048615,
          0.06618892401456833,
          0.13764552772045135,
          -0.02032509632408619,
          -0.4557161331176758,
          -0.06756223738193512,
          0.05886632204055786,
          0.11990690231323242,
          -0.1672331690788269,
          0.06952214241027832,
          0.12755776941776276,
          0.06587927788496017,
          0.28942903876304626,
          -0.12597160041332245,
          -0.10181925445795059,
          -0.10503385215997696,
          0.11395591497421265,
          0.05056687816977501,
          -0.03969251736998558,
          -0.05762350186705589,
          0.09668897092342377,
          0.021396027877926826,
          -0.11275555938482285
        ],
        [
          0.08115717768669128,
          -0.05004743114113808,
          -0.09426921606063843,
          -0.16679948568344116,
          0.06315608322620392,
          0.20275071263313293,
          -0.05912114307284355,
          0.03564919903874397,
          -0.10304372012615204,
          -0.05160742625594139,
          -0.1786884367465973,
          -0.13249711692333221,
          0.16085980832576752,
          -0.012149068526923656,
          0.16238699853420258,
          0.07784004509449005,
          0.06856092065572739,
          -0.1899077147245407,
          -0.039794664829969406,
          0.02638186328113079,
          0.0859106108546257,
          0.27807682752609253,
          -0.11426688730716705,
          -0.0208361204713583,
          -0.10726767778396606,
          -0.04141683131456375,
          -0.18338286876678467,
          -0.30048230290412903,
          -0.041072770953178406,
          -0.01010716799646616,
          -0.2551501393318176,
          0.05533411726355553,
          0.1639249622821808,
          -0.1471714973449707,
          0.10882110893726349,
          0.08832313120365143,
          -0.12256160378456116,
          0.1407950520515442,
          0.19941170513629913,
          0.07072924822568893
        ],
        [
          -0.2093135416507721,
          -0.029565706849098206,
          0.11375156790018082,
          -0.10612715035676956,
          -0.15112942457199097,
          0.20843780040740967,
          0.06129537895321846,
          0.05883070081472397,
          0.05770660564303398,
          -0.1835896372795105,
          0.13996624946594238,
          -0.11216855049133301,
          -0.16035763919353485,
          0.22485195100307465,
          0.20515747368335724,
          0.05688263848423958,
          0.28869935870170593,
          0.21417440474033356,
          -0.12397933006286621,
          -0.04967859759926796,
          0.15578219294548035,
          0.00038209283957257867,
          -0.09294597804546356,
          -0.2913915514945984,
          -0.013643758371472359,
          0.6184741854667664,
          0.21873144805431366,
          0.15696537494659424,
          -0.15902042388916016,
          -0.15943913161754608,
          -0.03392968699336052,
          0.04267899692058563,
          0.1128501445055008,
          0.1397990733385086,
          0.04895010590553284,
          0.27155590057373047,
          -0.4550773501396179,
          -0.30422788858413696,
          -0.15823890268802643,
          -0.20769524574279785
        ],
        [
          -0.08682198077440262,
          0.08721855282783508,
          -0.0019429129315540195,
          -0.06294933706521988,
          0.11063213646411896,
          0.17146241664886475,
          -0.05769360437989235,
          0.07486782222986221,
          -0.07505390793085098,
          0.26031017303466797,
          0.007435300387442112,
          0.15117570757865906,
          0.1448836773633957,
          -0.146033376455307,
          -0.09783586859703064,
          -0.06342025846242905,
          -0.1106211394071579,
          -0.19129562377929688,
          -0.15098445117473602,
          -0.09599753469228745,
          0.022437889128923416,
          -0.019833574071526527,
          0.01671086624264717,
          0.24253319203853607,
          0.23777887225151062,
          -0.11304722726345062,
          -0.02045208215713501,
          0.06173055246472359,
          -0.04153308644890785,
          0.11390984803438187,
          0.35727882385253906,
          0.06771336495876312,
          -0.4912663996219635,
          -0.49732136726379395,
          0.041260238736867905,
          0.10943874716758728,
          0.2797536551952362,
          0.4346218407154083,
          0.12329103797674179,
          -0.1735486388206482
        ],
        [
          -0.10384644567966461,
          0.26401540637016296,
          -0.069358691573143,
          -0.205538809299469,
          0.015192934311926365,
          -0.10339091718196869,
          0.14420919120311737,
          0.05352919176220894,
          -0.02014607936143875,
          -0.05233079940080643,
          0.03888648375868797,
          0.0047301058657467365,
          0.1551770269870758,
          -0.03709937632083893,
          0.18142403662204742,
          -0.1193738579750061,
          -0.05654837563633919,
          -0.06854474544525146,
          0.05005694180727005,
          -0.1958485096693039,
          -0.05361226573586464,
          -0.21289145946502686,
          -0.16830067336559296,
          0.12188170105218887,
          -0.24100007116794586,
          -0.5040042996406555,
          -0.3467618227005005,
          -0.04185127466917038,
          -0.08712209761142731,
          -0.27604296803474426,
          0.16916969418525696,
          0.15822605788707733,
          0.1889420747756958,
          -0.15996254980564117,
          -0.15499120950698853,
          -0.07605363428592682,
          0.06039392203092575,
          0.2147512137889862,
          0.16665349900722504,
          -0.3519941568374634
        ],
        [
          0.01606021821498871,
          -0.09136181324720383,
          0.04073029011487961,
          -0.14742779731750488,
          0.12783131003379822,
          -0.10661417245864868,
          -0.07646246254444122,
          0.0796402245759964,
          0.06856591254472733,
          0.14530718326568604,
          0.02896766923367977,
          0.14703455567359924,
          0.07440418004989624,
          0.0697731003165245,
          0.10295099765062332,
          0.017687520012259483,
          -0.0007088510319590569,
          -0.11737344413995743,
          0.026924937963485718,
          -0.1444530487060547,
          -0.0415547713637352,
          -0.14622411131858826,
          -0.1165883019566536,
          -0.12243141233921051,
          0.14386610686779022,
          0.08662128448486328,
          -0.003842332400381565,
          -0.0769701898097992,
          0.0738048404455185,
          0.0941862016916275,
          -0.011399543844163418,
          -0.06605350226163864,
          -0.10133562237024307,
          0.16318948566913605,
          -0.21660374104976654,
          -0.08675554394721985,
          0.14430227875709534,
          -0.12865950167179108,
          -0.16837339103221893,
          -0.17770229279994965
        ],
        [
          -0.19430072605609894,
          0.00024850235786288977,
          -0.136650949716568,
          0.17059862613677979,
          -0.20621000230312347,
          0.03383857011795044,
          -0.12602993845939636,
          0.04955548048019409,
          -0.15232311189174652,
          -0.20371443033218384,
          0.06760121881961823,
          0.03874713182449341,
          -0.19403322041034698,
          0.1465771198272705,
          0.14905482530593872,
          0.03725830838084221,
          -0.11273982375860214,
          0.1405690461397171,
          -0.04290582612156868,
          0.1163170114159584,
          -0.1949320286512375,
          -0.10393974184989929,
          0.1317642480134964,
          0.21346473693847656,
          0.028242161497473717,
          -0.2527463436126709,
          0.12530642747879028,
          0.010810455307364464,
          0.04968751594424248,
          -0.16446131467819214,
          -0.015166733413934708,
          0.04398370534181595,
          -0.23816503584384918,
          -0.16876372694969177,
          -0.30853983759880066,
          -0.2980805039405823,
          -0.1311146765947342,
          0.04659917950630188,
          -0.26271146535873413,
          -0.016308140009641647
        ],
        [
          -0.3958454430103302,
          0.09593239426612854,
          -0.033092331141233444,
          0.4606018364429474,
          0.4868660569190979,
          0.3792472183704376,
          0.31554120779037476,
          0.43299829959869385,
          0.17151178419589996,
          0.025123560801148415,
          0.08745614439249039,
          0.2854979634284973,
          0.18073268234729767,
          -0.036068692803382874,
          0.28790414333343506,
          -0.01879085786640644,
          0.13574956357479095,
          -0.03638334572315216,
          -0.04621276631951332,
          -0.09195947647094727,
          0.18483035266399384,
          0.04080391302704811,
          -0.3907923996448517,
          -0.3860650956630707,
          0.015268496237695217,
          0.3522626459598541,
          0.23756970465183258,
          0.25538524985313416,
          -0.23698249459266663,
          -0.3814220130443573,
          -0.0625934973359108,
          0.018758341670036316,
          0.21350181102752686,
          0.34950020909309387,
          0.005336335394531488,
          -0.31752103567123413,
          -0.08485104888677597,
          -0.1736319363117218,
          -0.15888278186321259,
          0.10317859798669815
        ],
        [
          0.003991915378719568,
          -0.2221803367137909,
          0.362603098154068,
          -0.16761112213134766,
          -0.04418818652629852,
          0.037534769624471664,
          -0.1140415146946907,
          -0.3393395245075226,
          -0.16777412593364716,
          -0.26096469163894653,
          -0.12946085631847382,
          -0.22213749587535858,
          0.026036059483885765,
          0.2263171374797821,
          -0.02813269942998886,
          0.20323443412780762,
          -0.0003309376770630479,
          -0.003231915645301342,
          -0.1387612670660019,
          -0.030305851250886917,
          0.06087927520275116,
          0.2708745300769806,
          0.17832161486148834,
          -0.2763397693634033,
          -0.3289472460746765,
          -0.27287667989730835,
          -0.19148407876491547,
          0.09548162668943405,
          -0.027091650292277336,
          -0.012282819487154484,
          0.5114675164222717,
          0.11013561487197876,
          0.1361061930656433,
          0.17421528697013855,
          0.26391640305519104,
          0.4248371720314026,
          0.0694388672709465,
          0.012439938262104988,
          0.21734733879566193,
          -0.3462534546852112
        ],
        [
          0.3208872377872467,
          -0.2018478959798813,
          0.07007543742656708,
          -0.22216510772705078,
          -0.03191309794783592,
          -0.3326544761657715,
          -0.2227383702993393,
          -0.18007276952266693,
          -0.08789189159870148,
          0.06066920608282089,
          0.051065292209386826,
          -0.12439998239278793,
          -0.0508466437458992,
          0.07210587710142136,
          -0.11175941675901413,
          0.17725448310375214,
          0.14124040305614471,
          -0.0972532406449318,
          -0.19142481684684753,
          0.007787910755723715,
          -0.04764874279499054,
          0.028249667957425117,
          0.31284213066101074,
          -0.6389940977096558,
          -0.2382500022649765,
          -0.10918004810810089,
          0.04631838575005531,
          0.08679673075675964,
          -0.21525458991527557,
          -0.13030683994293213,
          0.13798189163208008,
          -0.10369041562080383,
          0.20681966841220856,
          0.2024880200624466,
          -0.11490418016910553,
          -0.02289619855582714,
          -0.11544541269540787,
          -0.17359471321105957,
          -0.11863097548484802,
          0.2625325620174408
        ],
        [
          0.07392699271440506,
          0.13542495667934418,
          -0.06442230939865112,
          0.051343031227588654,
          0.028198448941111565,
          -0.05363279953598976,
          -0.09653184562921524,
          -0.1278342753648758,
          -0.13981735706329346,
          0.014298326335847378,
          -0.05803823471069336,
          0.145531564950943,
          0.05317924916744232,
          0.17688068747520447,
          -0.19448986649513245,
          -0.060296181589365005,
          -0.20669354498386383,
          -0.16587083041667938,
          0.12007936835289001,
          -0.14197419583797455,
          0.003844495164230466,
          -0.013256276957690716,
          0.12118896842002869,
          0.20025518536567688,
          0.33440086245536804,
          0.10471124947071075,
          -0.1492808312177658,
          -0.3253205716609955,
          -0.2515033185482025,
          -0.10185204446315765,
          0.35363897681236267,
          0.18654216825962067,
          -0.057703495025634766,
          -0.15814490616321564,
          -0.10420995950698853,
          -0.3658125400543213,
          -0.14480620622634888,
          0.1290249526500702,
          -0.02612295001745224,
          -0.284227579832077
        ],
        [
          -0.19179531931877136,
          -0.2734296917915344,
          -0.3237222135066986,
          -0.3506312966346741,
          -0.21381822228431702,
          0.03312176465988159,
          -0.11131688207387924,
          -0.024883024394512177,
          0.07914508134126663,
          0.16659744083881378,
          0.21516872942447662,
          0.20564141869544983,
          0.17204226553440094,
          0.16397309303283691,
          0.1635642796754837,
          0.12955501675605774,
          -0.04620792716741562,
          0.15762151777744293,
          -0.1800079047679901,
          -0.0710945725440979,
          0.07999850809574127,
          -0.19038434326648712,
          0.11589647829532623,
          -0.3778584897518158,
          -0.3553534746170044,
          -0.1444142460823059,
          0.1852332204580307,
          0.021603208035230637,
          0.10741566866636276,
          -0.1844833493232727,
          -0.18844886124134064,
          -0.22228345274925232,
          0.09894653409719467,
          -0.12856300175189972,
          -0.36552226543426514,
          0.005355649162083864,
          -0.02866942435503006,
          0.025977332144975662,
          0.47701555490493774,
          0.6616240739822388
        ],
        [
          0.09578225016593933,
          0.0812879279255867,
          -0.1977170705795288,
          -0.0991121307015419,
          -0.3144112229347229,
          -0.1636042594909668,
          -0.06351502984762192,
          -0.16163954138755798,
          -0.24887560307979584,
          0.026878319680690765,
          0.21728645265102386,
          0.07409622520208359,
          0.08734867721796036,
          -0.18655824661254883,
          0.10259310901165009,
          0.07479866594076157,
          0.012335448525846004,
          -0.21233907341957092,
          0.13558197021484375,
          0.0896395668387413,
          0.09478844702243805,
          -0.11006823182106018,
          -0.14488787949085236,
          0.21784764528274536,
          0.15610651671886444,
          0.08879409730434418,
          0.423006534576416,
          0.2794351875782013,
          -0.029431883245706558,
          -0.02272879146039486,
          -0.25743567943573,
          -0.30709508061408997,
          -0.19425120949745178,
          0.34165260195732117,
          0.0707254633307457,
          -0.09500707685947418,
          0.013635488227009773,
          -0.09001272916793823,
          -0.12525998055934906,
          0.1269502192735672
        ],
        [
          0.06933660805225372,
          0.08573297411203384,
          -0.010186976753175259,
          0.032455574721097946,
          -0.02946685254573822,
          0.044680699706077576,
          -0.15842212736606598,
          0.052165258675813675,
          -0.10439392179250717,
          0.13767601549625397,
          0.17836004495620728,
          -0.030256567522883415,
          0.019203154370188713,
          -0.022354591637849808,
          -0.010753822512924671,
          0.14298081398010254,
          0.13856837153434753,
          0.1152464970946312,
          -0.13625916838645935,
          -0.17909486591815948,
          0.11429771780967712,
          0.24516478180885315,
          -0.19850251078605652,
          0.09493345767259598,
          0.07496333867311478,
          -0.14203761518001556,
          0.01559437531977892,
          -0.1327705681324005,
          -0.1254415661096573,
          0.04320840537548065,
          -0.1545926034450531,
          0.030551612377166748,
          0.18299734592437744,
          0.0824916809797287,
          0.05027063935995102,
          0.06990958750247955,
          0.21378296613693237,
          0.018577804788947105,
          -0.03967905417084694,
          0.0684165358543396
        ],
        [
          -0.20446380972862244,
          -0.11796281486749649,
          0.27222681045532227,
          -0.143548846244812,
          0.14694224298000336,
          -0.07392456382513046,
          -0.17714746296405792,
          -0.21058335900306702,
          -0.08861800283193588,
          -0.07404062896966934,
          -0.05761353299021721,
          -0.10194128006696701,
          0.025538170710206032,
          -0.17329323291778564,
          -0.1616591066122055,
          -0.0904766321182251,
          0.08537181466817856,
          -0.006551588885486126,
          0.07002555578947067,
          0.14226196706295013,
          0.05262747406959534,
          -0.21608753502368927,
          -0.10255701839923859,
          0.2256094515323639,
          0.45834657549858093,
          0.3058675527572632,
          -0.29874563217163086,
          -0.3499637842178345,
          0.07342436164617538,
          0.03439953923225403,
          -0.042028315365314484,
          0.0773371234536171,
          -0.4412451386451721,
          -0.10277000069618225,
          -0.17372463643550873,
          -0.37505102157592773,
          -0.4959079325199127,
          0.028495097532868385,
          0.1957014799118042,
          0.06232547014951706
        ],
        [
          0.35301992297172546,
          -0.2625918686389923,
          0.00956661719828844,
          -0.10244486480951309,
          -0.24335715174674988,
          -0.2719056308269501,
          -0.2153567373752594,
          -0.23579952120780945,
          -0.32149893045425415,
          -0.12794868648052216,
          -0.04944009706377983,
          -0.21878986060619354,
          -0.1620771884918213,
          -0.15583588182926178,
          -0.030732411891222,
          0.053140461444854736,
          -0.017476288601756096,
          0.17658817768096924,
          -0.048718709498643875,
          0.008518953807651997,
          0.17212991416454315,
          0.00008737968164496124,
          -0.11145924031734467,
          0.15150871872901917,
          0.19181793928146362,
          0.30168649554252625,
          -0.1452827900648117,
          0.008987141773104668,
          -0.1462738960981369,
          0.1566459834575653,
          0.023695647716522217,
          -0.10765470564365387,
          -0.3478058874607086,
          -0.2790541648864746,
          0.03355082497000694,
          -0.04308732971549034,
          -0.010746217332780361,
          -0.3011277914047241,
          0.014039328321814537,
          -0.055048514157533646
        ],
        [
          0.47387900948524475,
          -0.36201125383377075,
          -0.10745801031589508,
          -0.15780317783355713,
          -0.30304399132728577,
          -0.04890686273574829,
          -0.13530351221561432,
          -0.28879520297050476,
          -0.04322372004389763,
          -0.004357300698757172,
          0.08945814520120621,
          0.03586582839488983,
          -0.12709413468837738,
          -0.16607734560966492,
          -0.030392497777938843,
          -0.017936736345291138,
          -0.01584578864276409,
          -0.11627636104822159,
          -0.16957171261310577,
          -0.11923772096633911,
          -0.10858681052923203,
          0.15683656930923462,
          0.30844175815582275,
          -0.19021064043045044,
          -0.21423642337322235,
          -0.45094728469848633,
          0.03804143890738487,
          -0.05469365045428276,
          -0.014953183010220528,
          0.28596457839012146,
          -0.17456305027008057,
          0.16084830462932587,
          0.12395722419023514,
          0.08563056588172913,
          0.03824755921959877,
          -0.0323384590446949,
          0.1336592733860016,
          0.07047440111637115,
          0.029949212446808815,
          0.04615728184580803
        ],
        [
          0.26523467898368835,
          -0.07221096009016037,
          -0.11017055809497833,
          -0.1375332921743393,
          0.018057573586702347,
          -0.1670817732810974,
          -0.3025611340999603,
          0.016072971746325493,
          -0.12381461262702942,
          -0.1127270758152008,
          -0.16506820917129517,
          -0.1553177386522293,
          0.048685990273952484,
          0.1519089639186859,
          0.11427685618400574,
          0.087203249335289,
          -0.15613588690757751,
          -0.1902787685394287,
          0.1306670904159546,
          -0.1279555857181549,
          0.1384364366531372,
          -0.41757941246032715,
          -0.2092311531305313,
          0.3363632559776306,
          0.22628054022789001,
          0.1519356667995453,
          0.17937421798706055,
          0.10639487206935883,
          -0.31824204325675964,
          -0.16968931257724762,
          -0.15375687181949615,
          -0.14372672140598297,
          0.06736364215612411,
          -0.04695853590965271,
          0.02647499181330204,
          -0.0030988561920821667,
          -0.07434678822755814,
          0.07264133542776108,
          -0.3770546019077301,
          0.021027518436312675
        ],
        [
          0.034688424319028854,
          -0.019819805398583412,
          -0.24486882984638214,
          -0.08589521795511246,
          0.03737650439143181,
          -0.31387224793434143,
          -0.09115267544984818,
          -0.10727839171886444,
          -0.07465335726737976,
          -0.12893472611904144,
          -0.014818067662417889,
          0.212631493806839,
          -0.1846156269311905,
          0.027807975187897682,
          0.07399033010005951,
          -0.05248860642313957,
          -0.03956230357289314,
          -0.07187158614397049,
          -0.17193551361560822,
          -0.20139117538928986,
          0.10557329654693604,
          -0.0014647372299805284,
          -0.21693919599056244,
          -0.19372448325157166,
          0.1833438128232956,
          0.057721614837646484,
          -0.31529414653778076,
          -0.16707472503185272,
          0.0007067356491461396,
          -0.36257919669151306,
          0.229059100151062,
          -0.12845171988010406,
          0.1423296481370926,
          0.43608543276786804,
          0.3823353946208954,
          0.37193042039871216,
          0.28876200318336487,
          0.38824042677879333,
          0.47426825761795044,
          -0.028810545802116394
        ],
        [
          -0.3014868497848511,
          0.07018207758665085,
          -0.1675480157136917,
          -0.07389212399721146,
          -0.09447436779737473,
          -0.049014829099178314,
          0.11663765460252762,
          0.00397413270547986,
          0.0986621081829071,
          -0.11069682240486145,
          0.18325912952423096,
          0.09519225358963013,
          0.06525138765573502,
          -0.1585076004266739,
          -0.14465557038784027,
          -0.1194063350558281,
          -0.03632877394556999,
          0.11292006075382233,
          0.17880958318710327,
          0.07863413542509079,
          -0.048115525394678116,
          -0.14688445627689362,
          0.2028028964996338,
          -0.26538482308387756,
          -0.18223533034324646,
          -0.1765616238117218,
          0.07562029361724854,
          -0.034854255616664886,
          0.19767321646213531,
          -0.0593930222094059,
          0.11346648633480072,
          0.050828225910663605,
          0.2325102686882019,
          0.02505846880376339,
          -0.07072083652019501,
          4.695123436704307e-7,
          -0.07866738736629486,
          -0.0350806824862957,
          0.2485877126455307,
          0.037385545670986176
        ],
        [
          -0.12170910835266113,
          -0.09147069603204727,
          0.09933360666036606,
          0.13534344732761383,
          0.04357175901532173,
          0.16335827112197876,
          0.12478645890951157,
          -0.012686079367995262,
          0.011032680980861187,
          -0.100653275847435,
          -0.11198300123214722,
          -0.1472579687833786,
          -0.0041467370465397835,
          -0.2800424098968506,
          -0.19387762248516083,
          -0.14397165179252625,
          -0.062222063541412354,
          0.1580677330493927,
          -0.028215063735842705,
          -0.09941656142473221,
          -0.004022806417196989,
          -0.1053767204284668,
          0.03837595880031586,
          -0.16567011177539825,
          -0.34533631801605225,
          -0.10628128051757812,
          0.31679388880729675,
          0.06931569427251816,
          -0.47290003299713135,
          -0.3531554937362671,
          -0.07655303180217743,
          -0.19577935338020325,
          -0.4047366678714752,
          -0.3072819113731384,
          -0.1050262600183487,
          -0.167227640748024,
          -0.1631060540676117,
          0.3381209969520569,
          0.49277180433273315,
          0.31845784187316895
        ],
        [
          0.025091147050261497,
          -0.142796590924263,
          -0.13374033570289612,
          -0.19354718923568726,
          -0.11229272931814194,
          -0.1548086553812027,
          -0.27317214012145996,
          -0.11652906239032745,
          0.059668052941560745,
          0.0019847776275128126,
          -0.048254579305648804,
          -0.037099387496709824,
          0.19308052957057953,
          -0.1291179060935974,
          -0.12666867673397064,
          0.017902610823512077,
          0.04379662498831749,
          0.04004216939210892,
          -0.12266934663057327,
          -0.1067461147904396,
          0.16985385119915009,
          -0.21278823912143707,
          0.1680300086736679,
          -0.03169795125722885,
          -0.09894886612892151,
          0.13831600546836853,
          0.18971392512321472,
          -0.024854497984051704,
          0.2621338665485382,
          0.5010097622871399,
          0.327242910861969,
          0.24358581006526947,
          0.13161198794841766,
          -0.14791470766067505,
          -0.2994667589664459,
          -0.05364672467112541,
          -0.04567340761423111,
          -0.14499403536319733,
          -0.1927732527256012,
          0.22658732533454895
        ],
        [
          -0.011183470487594604,
          -0.25562071800231934,
          -0.1322573572397232,
          -0.12059587240219116,
          -0.05083313211798668,
          -0.051119811832904816,
          -0.20795901119709015,
          0.03938734903931618,
          -0.04911908507347107,
          -0.17311114072799683,
          0.07630293071269989,
          0.09369532018899918,
          -0.1634601503610611,
          0.02338213101029396,
          0.010641701519489288,
          -0.002315609948709607,
          -0.17834745347499847,
          0.21066302061080933,
          -0.1922832727432251,
          -0.19198863208293915,
          0.0311233289539814,
          -0.019862037152051926,
          -0.1757649928331375,
          -0.14292749762535095,
          0.02361970767378807,
          0.011607805266976357,
          0.0056283799931406975,
          0.3229326903820038,
          0.2951190769672394,
          0.4223495125770569,
          0.2073652297258377,
          0.08724907040596008,
          0.025827795267105103,
          -0.08256828784942627,
          -0.1380956768989563,
          -0.28608763217926025,
          -0.25528451800346375,
          -0.5423341989517212,
          -0.06791402399539948,
          0.13799288868904114
        ],
        [
          -0.1386815756559372,
          -0.060025665909051895,
          0.14283537864685059,
          0.14912253618240356,
          -0.15310075879096985,
          0.11334063112735748,
          0.015970446169376373,
          -0.14164511859416962,
          0.17167310416698456,
          -0.035157088190317154,
          -0.04623725637793541,
          -0.08142006397247314,
          0.02280302718281746,
          0.08580681681632996,
          -0.1369238942861557,
          0.12147901952266693,
          -0.15926021337509155,
          -0.18828225135803223,
          0.10098996013402939,
          -0.046901971101760864,
          -0.0295235738158226,
          -0.11603911966085434,
          -0.19252590835094452,
          -0.21695226430892944,
          0.2246476262807846,
          0.11317121237516403,
          0.11492281407117844,
          -0.13849622011184692,
          0.14550866186618805,
          0.11478293687105179,
          0.14950446784496307,
          -0.14292724430561066,
          0.018419072031974792,
          -0.009146512486040592,
          0.09094053506851196,
          0.0051937829703092575,
          -0.11918406188488007,
          0.09647788107395172,
          -0.06708651781082153,
          0.03549232706427574
        ],
        [
          -0.24892623722553253,
          0.3523592948913574,
          0.018516190350055695,
          -0.05263574793934822,
          0.26164090633392334,
          0.2444666028022766,
          0.3082311749458313,
          0.16920970380306244,
          -0.04981736093759537,
          0.23671962320804596,
          0.2321096509695053,
          0.06803788989782333,
          0.037846457213163376,
          0.2102964222431183,
          0.07750960439443588,
          -0.0020133331418037415,
          0.11843223124742508,
          -0.09361311793327332,
          0.148086279630661,
          -0.13584907352924347,
          0.016586270183324814,
          -0.1204860582947731,
          -0.09435958415269852,
          -0.048770517110824585,
          0.05674330145120621,
          0.09954297542572021,
          0.047570716589689255,
          -0.2175428867340088,
          0.149956613779068,
          0.2091713398694992,
          0.061683814972639084,
          0.003995990846306086,
          0.1502257138490677,
          -0.10167283564805984,
          -0.11297665536403656,
          -0.295666366815567,
          -0.04305653274059296,
          0.05601714923977852,
          0.05156189575791359,
          -0.055987343192100525
        ],
        [
          -0.06391257792711258,
          0.2233649045228958,
          0.051812488585710526,
          0.08623839914798737,
          0.2087983638048172,
          0.2164725512266159,
          -0.1091759204864502,
          0.08013758808374405,
          -0.054521240293979645,
          -0.09165267646312714,
          -0.041473839432001114,
          0.06137249246239662,
          -0.06678305566310883,
          0.17345008254051208,
          0.17295293509960175,
          -0.13675326108932495,
          -0.12867814302444458,
          0.13423918187618256,
          0.000793141545727849,
          0.11210732907056808,
          -0.08281829953193665,
          -0.17427028715610504,
          0.20469164848327637,
          0.0043704998679459095,
          -0.21939754486083984,
          -0.1891578882932663,
          0.035758499056100845,
          -0.002506942255422473,
          0.11842363327741623,
          0.06007522717118263,
          0.05564052239060402,
          -0.16248926520347595,
          0.017138179391622543,
          0.20596538484096527,
          0.03458024188876152,
          0.22335395216941833,
          0.2646496295928955,
          0.14099696278572083,
          0.0864519327878952,
          0.08697198331356049
        ],
        [
          0.42969393730163574,
          -0.3202666640281677,
          0.089304618537426,
          -0.373473197221756,
          -0.3639126718044281,
          -0.22385156154632568,
          -0.30016088485717773,
          -0.21507781744003296,
          -0.08285605162382126,
          0.17292247712612152,
          0.03531316667795181,
          -0.057868458330631256,
          0.01972327008843422,
          0.034668873995542526,
          0.04531719908118248,
          -0.25777775049209595,
          -0.08567837625741959,
          0.04882359877228737,
          -0.13023604452610016,
          0.12419658899307251,
          -0.037328727543354034,
          0.020290836691856384,
          -0.19811677932739258,
          0.19702030718326569,
          0.2972813546657562,
          0.07927641272544861,
          0.5609180331230164,
          -0.1926378458738327,
          0.14427775144577026,
          -0.08184782415628433,
          -0.24369360506534576,
          -0.2212826907634735,
          0.33407875895500183,
          -0.12758643925189972,
          0.23032379150390625,
          -0.1574222892522812,
          -0.15532805025577545,
          0.007103901356458664,
          -0.2495604008436203,
          -0.36882445216178894
        ],
        [
          -0.09557010233402252,
          -0.15374812483787537,
          0.17500674724578857,
          0.15389451384544373,
          -0.05469217151403427,
          -0.07378076016902924,
          -0.2259758859872818,
          -0.0759580060839653,
          -0.20915964245796204,
          -0.17666712403297424,
          0.04625113680958748,
          -0.1809510439634323,
          0.14479349553585052,
          -0.13798898458480835,
          -0.1820024847984314,
          -0.15356586873531342,
          -0.21678413450717926,
          0.016595732420682907,
          -0.07487437129020691,
          -0.08685177564620972,
          0.2731497287750244,
          0.012790643610060215,
          -0.26567116379737854,
          -0.4061698317527771,
          -0.06464438885450363,
          0.13534967601299286,
          -0.17457957565784454,
          -0.2534930408000946,
          0.12460608035326004,
          0.02369316853582859,
          0.045123472809791565,
          0.13290387392044067,
          0.03788066282868385,
          -0.12226252257823944,
          0.05874449387192726,
          0.10504677891731262,
          0.01618853397667408,
          0.3008149266242981,
          0.2022325098514557,
          0.358135849237442
        ],
        [
          0.11930610984563828,
          -0.22863417863845825,
          0.049204036593437195,
          -0.23144517838954926,
          -0.28579336404800415,
          -0.006963867228478193,
          -0.19044332206249237,
          -0.22595976293087006,
          -0.2815370261669159,
          -0.05015202984213829,
          -0.333747535943985,
          -0.2690160274505615,
          -0.21711765229701996,
          0.09701859951019287,
          -0.07484319806098938,
          -0.15118636190891266,
          -0.14565765857696533,
          0.034654125571250916,
          0.159364715218544,
          -0.15502199530601501,
          0.07286391407251358,
          -0.02587467059493065,
          0.1701696515083313,
          0.0750175267457962,
          0.2241460084915161,
          0.045852869749069214,
          -0.012562982738018036,
          0.0989055186510086,
          0.08253256976604462,
          0.10776505619287491,
          -0.22076508402824402,
          0.051672790199518204,
          -0.1850491762161255,
          -0.05902376025915146,
          -0.11040713638067245,
          -0.15453585982322693,
          0.1447603553533554,
          -0.04624753072857857,
          -0.2623887360095978,
          -0.30916038155555725
        ],
        [
          -0.04043326899409294,
          -0.06867524236440659,
          -0.09736054390668869,
          -0.07526335120201111,
          0.06754978001117706,
          0.051960237324237823,
          -0.042782463133335114,
          0.15297459065914154,
          -0.06913770735263824,
          0.08495789021253586,
          -0.04312257468700409,
          0.0738794207572937,
          0.01719219982624054,
          -0.017547031864523888,
          -0.06862705200910568,
          -0.16244089603424072,
          -0.08892489224672318,
          -0.05476296320557594,
          -0.08166390657424927,
          -0.12379839271306992,
          -0.11370784789323807,
          -0.21768353879451752,
          -0.056243762373924255,
          0.19180737435817719,
          0.1996721476316452,
          -0.054700691252946854,
          0.12799064815044403,
          -0.05373512953519821,
          -0.052062202244997025,
          -0.0000649140783934854,
          0.2019069343805313,
          0.03754809498786926,
          0.06325124949216843,
          -0.03382861614227295,
          -0.026090236380696297,
          0.16343696415424347,
          -0.061462003737688065,
          -0.08354368060827255,
          -0.1941867470741272,
          0.04370114579796791
        ],
        [
          0.005222295876592398,
          0.18823522329330444,
          0.07778576016426086,
          -0.14395137131214142,
          0.07230328023433685,
          -0.021111775189638138,
          0.054954949766397476,
          0.05062635987997055,
          -0.06899718940258026,
          0.13468292355537415,
          0.03407309204339981,
          -0.18672531843185425,
          -0.1313169002532959,
          -0.17277880012989044,
          0.18722203373908997,
          0.1697184443473816,
          0.1004914790391922,
          -0.1927272081375122,
          0.05625166743993759,
          0.02889634296298027,
          0.03610425069928169,
          0.22087688744068146,
          -0.052865009754896164,
          0.17536962032318115,
          -0.1751471906900406,
          -0.035011667758226395,
          -0.08464384078979492,
          -0.022029772400856018,
          0.13712909817695618,
          -0.22259022295475006,
          0.004468768369406462,
          -0.02375376969575882,
          0.13059304654598236,
          0.16543206572532654,
          -0.06683517247438431,
          0.17867134511470795,
          -0.06424613296985626,
          -0.004834411200135946,
          0.03607100993394852,
          -0.04027297720313072
        ],
        [
          0.08371616154909134,
          -0.11302393674850464,
          0.08959048241376877,
          0.026773035526275635,
          -0.1633792221546173,
          0.0852186530828476,
          -0.1251976191997528,
          0.20818260312080383,
          -0.08605566620826721,
          -0.10747510194778442,
          0.0852380320429802,
          0.2072925567626953,
          -0.15003272891044617,
          0.10469374805688858,
          0.1665562242269516,
          -0.008980579674243927,
          -0.027034597471356392,
          -0.10798214375972748,
          -0.20022104680538177,
          -0.0666017085313797,
          -0.003873100969940424,
          0.14220097661018372,
          -0.09636232256889343,
          0.14776678383350372,
          0.07017528265714645,
          -0.03837226703763008,
          0.30155977606773376,
          0.19577601552009583,
          0.1343514323234558,
          0.32235419750213623,
          -0.07077476382255554,
          -0.0848187655210495,
          -0.04886219650506973,
          0.07293102890253067,
          -0.11322569847106934,
          0.06832049041986465,
          0.19747455418109894,
          0.10886715352535248,
          0.45102187991142273,
          0.2626432478427887
        ],
        [
          0.02292013168334961,
          -0.44446948170661926,
          0.31974971294403076,
          0.20848581194877625,
          -0.08465836942195892,
          0.10462553799152374,
          -0.29669827222824097,
          -0.36417248845100403,
          -0.03475140035152435,
          -0.1153293251991272,
          -0.19586177170276642,
          -0.22298140823841095,
          -0.05158630758523941,
          0.0159270241856575,
          -0.13118012249469757,
          -0.17313632369041443,
          -0.042067524045705795,
          0.05413300171494484,
          -0.005944451317191124,
          0.18409229815006256,
          -0.10324814170598984,
          0.27839571237564087,
          0.2595362365245819,
          -0.21917332708835602,
          -0.3508247435092926,
          -0.11908289045095444,
          0.4091423749923706,
          0.21881823241710663,
          0.12821047008037567,
          -0.04006770998239517,
          0.003582844976335764,
          -0.16787566244602203,
          -0.22223857045173645,
          -0.026036689057946205,
          -0.11554648727178574,
          -0.14823772013187408,
          0.12461411952972412,
          -0.15641577541828156,
          0.046919092535972595,
          0.03269852325320244
        ],
        [
          0.07062999904155731,
          -0.06596748530864716,
          -0.02366757206618786,
          -0.15399129688739777,
          -0.027704870328307152,
          -0.13414379954338074,
          0.11454353481531143,
          -0.24683734774589539,
          -0.03083200380206108,
          0.028077377006411552,
          -0.0397760309278965,
          -0.25347957015037537,
          -0.1998772770166397,
          -0.14768315851688385,
          0.1419697105884552,
          -0.14784464240074158,
          0.024234991520643234,
          0.0403071790933609,
          -0.09031231701374054,
          -0.1453554332256317,
          0.05089094862341881,
          0.09795116633176804,
          -0.05662137642502785,
          0.01757999137043953,
          0.2308700680732727,
          0.13411454856395721,
          0.03941582143306732,
          -0.1332092583179474,
          0.17367985844612122,
          -0.11556161940097809,
          -0.047895245254039764,
          -0.18657700717449188,
          -0.18342404067516327,
          -0.13487949967384338,
          0.19068464636802673,
          -0.10650759190320969,
          -0.059565454721450806,
          -0.17776182293891907,
          -0.3718545436859131,
          -0.14911343157291412
        ],
        [
          0.14068610966205597,
          -0.05918846279382706,
          0.14750936627388,
          0.024455728009343147,
          0.18818648159503937,
          0.03601223602890968,
          0.10070212930440903,
          -0.15094193816184998,
          0.12064461410045624,
          -0.07695521414279938,
          0.14829513430595398,
          -0.11614614725112915,
          0.06717260926961899,
          -0.011247076094150543,
          -0.08523837476968765,
          -0.18129847943782806,
          -0.05895861238241196,
          0.10906166583299637,
          -0.04680527746677399,
          -0.14883992075920105,
          0.10730063170194626,
          0.16523779928684235,
          -0.1531420797109604,
          -0.16436348855495453,
          -0.11692118644714355,
          0.12814980745315552,
          -0.1751280277967453,
          -0.03342139720916748,
          -0.24008730053901672,
          -0.17301267385482788,
          -0.02523760311305523,
          -0.17040647566318512,
          0.18397609889507294,
          -0.10412254184484482,
          -0.17270804941654205,
          -0.06009656563401222,
          -0.18295973539352417,
          -0.12766341865062714,
          0.17596939206123352,
          -0.06213710457086563
        ],
        [
          -0.1654985547065735,
          0.06301848590373993,
          -0.1113438829779625,
          -0.015517588704824448,
          -0.18147175014019012,
          -0.18869376182556152,
          0.035960692912340164,
          -0.1467519998550415,
          0.21582216024398804,
          0.017659490928053856,
          0.19488544762134552,
          0.14882245659828186,
          0.013863238506019115,
          0.1555066555738449,
          0.06927232444286346,
          0.07976481318473816,
          -0.23385824263095856,
          0.1475815325975418,
          -0.11121859401464462,
          0.11761707067489624,
          -0.08762433379888535,
          -0.2997840940952301,
          0.34798166155815125,
          0.0397312268614769,
          -0.2446291297674179,
          -0.6804103851318359,
          -0.18741002678871155,
          -0.08760705590248108,
          0.006154784932732582,
          0.061418402940034866,
          0.3185763955116272,
          -0.0910908505320549,
          0.014030179008841515,
          -0.27284321188926697,
          0.08317690342664719,
          0.43753769993782043,
          0.3875535726547241,
          0.5540547370910645,
          0.31535375118255615,
          -0.3197420537471771
        ],
        [
          -0.46939581632614136,
          0.33496445417404175,
          0.20440800487995148,
          0.26007869839668274,
          0.2795206606388092,
          0.1851450502872467,
          0.25616949796676636,
          0.07944323867559433,
          0.10142292082309723,
          0.09055022895336151,
          -0.04749445617198944,
          0.22782182693481445,
          0.017409978434443474,
          0.18705742061138153,
          -0.014025204814970493,
          0.07047316431999207,
          0.026136141270399094,
          0.18449509143829346,
          -0.07350792735815048,
          0.026481902226805687,
          0.027960970997810364,
          -0.26833394169807434,
          -0.08768459409475327,
          0.5132877230644226,
          0.11369285732507706,
          0.29593172669410706,
          -0.17974112927913666,
          -0.41006746888160706,
          -0.17912247776985168,
          -0.005878672935068607,
          -0.2511962354183197,
          0.06592807173728943,
          -0.03561042249202728,
          -0.12742750346660614,
          0.18102556467056274,
          -0.04435892030596733,
          -0.32991135120391846,
          -0.17185692489147186,
          -0.163203626871109,
          -0.4378369450569153
        ],
        [
          0.16180357336997986,
          0.057283926755189896,
          -0.14057494699954987,
          0.06199904531240463,
          -0.015141738578677177,
          -0.18877841532230377,
          0.12291835248470306,
          0.007030288223177195,
          0.13335558772087097,
          0.11639885604381561,
          -0.10716679692268372,
          0.18429085612297058,
          0.1173292025923729,
          0.06646963953971863,
          0.17190374433994293,
          0.010792740620672703,
          -0.07865022867918015,
          -0.18716178834438324,
          0.03237030655145645,
          -0.13190527260303497,
          -0.029419193044304848,
          0.4347098469734192,
          0.12776295840740204,
          0.10476332902908325,
          0.013492345809936523,
          0.10474294424057007,
          0.10646171867847443,
          -0.06281733512878418,
          -0.09908496588468552,
          0.16237877309322357,
          -0.0689246654510498,
          0.06143884360790253,
          -0.06947461515665054,
          0.011990842409431934,
          -0.09984289109706879,
          -0.1669507771730423,
          -0.018487704917788506,
          0.04925449937582016,
          0.1627696007490158,
          0.0224912092089653
        ],
        [
          -0.3389756679534912,
          -0.1429009735584259,
          -0.14885291457176208,
          0.10370662063360214,
          -0.12400567531585693,
          -0.00540362112224102,
          -0.09295351058244705,
          -0.06310144811868668,
          0.18217533826828003,
          -0.19217869639396667,
          0.12361180782318115,
          -0.07223880290985107,
          -0.05690765380859375,
          0.15656544268131256,
          -0.02553296647965908,
          -0.0328521691262722,
          -0.011399507522583008,
          0.12978120148181915,
          -0.1045941486954689,
          0.011311130598187447,
          -0.01225342694669962,
          -0.45207124948501587,
          0.04181279242038727,
          -0.10851798951625824,
          0.13214144110679626,
          0.1422790139913559,
          -0.06915684789419174,
          -0.02262159250676632,
          0.24445587396621704,
          0.08978273719549179,
          0.009914924390614033,
          -0.02578676864504814,
          0.15002939105033875,
          -0.1657712310552597,
          -0.06184892728924751,
          -0.06481707841157913,
          -0.11029680073261261,
          0.04294124245643616,
          -0.12772995233535767,
          -0.09477499127388
        ],
        [
          -0.07756256312131882,
          0.11175427585840225,
          -0.1735476553440094,
          -0.0038455515168607235,
          -0.10961960256099701,
          -0.032297007739543915,
          0.03515453636646271,
          0.24066181480884552,
          -0.04976095259189606,
          0.04919794201850891,
          -0.06864037364721298,
          0.03948958218097687,
          0.026527827605605125,
          -0.05326472967863083,
          0.050746649503707886,
          -0.027950763702392578,
          0.08378005027770996,
          -0.17507009208202362,
          -0.1952933371067047,
          0.050948888063430786,
          -0.06005576252937317,
          0.21235986053943634,
          0.15611004829406738,
          -0.35091495513916016,
          -0.09245158731937408,
          0.08894567936658859,
          -0.23825688660144806,
          0.10718562453985214,
          0.2697218060493469,
          0.3087845742702484,
          0.09734887629747391,
          -0.19520139694213867,
          0.4608577787876129,
          0.6959725618362427,
          0.05635320395231247,
          0.5063105225563049,
          0.06784900277853012,
          -0.3647710680961609,
          -0.20585863292217255,
          0.15074807405471802
        ],
        [
          0.026347102597355843,
          0.21409492194652557,
          -0.018527822569012642,
          0.09980633109807968,
          0.017236068844795227,
          -0.011725198477506638,
          -0.12897150218486786,
          0.11787708103656769,
          0.061894066631793976,
          0.19554677605628967,
          0.08034560084342957,
          0.20229892432689667,
          -0.13609428703784943,
          0.029180321842432022,
          0.09881164878606796,
          0.0037435588892549276,
          -0.1733328402042389,
          -0.13355156779289246,
          -0.012846458703279495,
          0.1929793804883957,
          -0.08728716522455215,
          -0.3113723695278168,
          -0.2419765144586563,
          0.1789231300354004,
          0.37761417031288147,
          0.2901048958301544,
          -0.16406558454036713,
          -0.12379851192235947,
          -0.1577337235212326,
          -0.33232343196868896,
          -0.1800030767917633,
          -0.173411563038826,
          -0.0965220257639885,
          0.09260430932044983,
          0.01888578198850155,
          0.05253131687641144,
          0.009977975860238075,
          -0.12960630655288696,
          -0.13312266767024994,
          0.1382230967283249
        ],
        [
          -0.1960546225309372,
          -0.0021238764747977257,
          -0.0027398765087127686,
          0.14129799604415894,
          -0.02904389053583145,
          0.25275948643684387,
          0.18770472705364227,
          0.3845999836921692,
          0.38488149642944336,
          0.3297886550426483,
          0.2911035418510437,
          -0.1220390722155571,
          -0.2476952075958252,
          -0.10645585507154465,
          0.06948331743478775,
          -0.08476106077432632,
          0.004851005505770445,
          -0.11319273710250854,
          -0.010377439670264721,
          0.1263323277235031,
          -0.24925345182418823,
          0.3005483150482178,
          0.19036008417606354,
          -0.23750273883342743,
          -0.2596476972103119,
          -0.03635062277317047,
          0.006972517352551222,
          0.1485103815793991,
          0.10247558355331421,
          0.10135477781295776,
          0.011952330358326435,
          -0.15524539351463318,
          0.4121320843696594,
          0.3228743374347687,
          -0.22298385202884674,
          0.5473849773406982,
          0.3271271288394928,
          -0.34782516956329346,
          -0.02021843194961548,
          -0.16874265670776367
        ],
        [
          -0.11231505870819092,
          0.1853177696466446,
          0.14511995017528534,
          0.38854166865348816,
          0.2859761714935303,
          0.4468260705471039,
          0.3815670609474182,
          0.19065426290035248,
          0.017898889258503914,
          0.04374796152114868,
          0.1931384652853012,
          0.30649957060813904,
          0.038082484155893326,
          0.24464094638824463,
          0.13030430674552917,
          0.18261173367500305,
          0.16684284806251526,
          0.07829931378364563,
          -0.14675018191337585,
          -0.20896048843860626,
          0.0384807363152504,
          0.23964685201644897,
          -0.4185657799243927,
          -0.3104149103164673,
          -0.11167945712804794,
          0.5336135029792786,
          -0.07578384876251221,
          0.3918636441230774,
          -0.15342837572097778,
          -0.4908762574195862,
          0.1122312992811203,
          -0.18242038786411285,
          0.30545130372047424,
          0.09627068787813187,
          0.1381118893623352,
          -0.1705409586429596,
          -0.4349636435508728,
          -0.0799260288476944,
          0.12628598511219025,
          -0.1404646337032318
        ],
        [
          -0.34619951248168945,
          -0.07662912458181381,
          -0.07870351523160934,
          0.0609932541847229,
          0.08351904898881912,
          0.05511469021439552,
          0.09883524477481842,
          -0.07661523669958115,
          -0.0316598005592823,
          -0.0818716511130333,
          -0.0544666089117527,
          -0.2897089421749115,
          0.05757508426904678,
          -0.0681719183921814,
          0.2392006367444992,
          0.3042251467704773,
          0.2399923950433731,
          -0.06218838691711426,
          -0.022458503022789955,
          -0.04151414334774017,
          0.02932661958038807,
          -0.004532195627689362,
          -0.05013154447078705,
          -0.15120859444141388,
          0.05239008739590645,
          0.22919879853725433,
          -0.2705942690372467,
          0.1491531878709793,
          -0.0559341125190258,
          -0.3152501583099365,
          0.3200937509536743,
          -0.09223621338605881,
          0.2945225238800049,
          0.4996420741081238,
          0.4079231321811676,
          0.45329079031944275,
          0.0766303539276123,
          0.03171098604798317,
          0.6052795052528381,
          -0.17115743458271027
        ],
        [
          -0.15732577443122864,
          0.045482710003852844,
          -0.03821654990315437,
          0.12768657505512238,
          -0.1350337117910385,
          -0.11864592134952545,
          -0.07145418971776962,
          0.025620969012379646,
          0.0030461784917861223,
          0.08695611357688904,
          0.22136104106903076,
          0.11440540105104446,
          0.10433825105428696,
          -0.08339852094650269,
          -0.04266669228672981,
          0.11276418715715408,
          -0.09386692941188812,
          -0.11348476260900497,
          -0.08973110467195511,
          -0.10598385334014893,
          -0.16917136311531067,
          -0.11621399223804474,
          -0.037710972130298615,
          -0.14792118966579437,
          0.2434302568435669,
          0.24469465017318726,
          0.24037805199623108,
          0.19317030906677246,
          0.06712062656879425,
          0.2229602336883545,
          0.0841711014509201,
          0.12274280935525894,
          0.16115665435791016,
          0.0034155743196606636,
          -0.10058782994747162,
          -0.05404755845665932,
          0.013402468524873257,
          -0.14362066984176636,
          -0.13908153772354126,
          0.08318743109703064
        ]
      ],
      "biases": [
        0.10060814023017883,
        -0.033956680446863174,
        0.10030976682901382,
        -0.08499864488840103,
        0.045958347618579865,
        0.15941201150417328,
        0.08958524465560913,
        0.25891387462615967,
        0.10740899294614792,
        0.03873828426003456,
        0.03236539661884308,
        0.16626784205436707,
        -0.23746730387210846,
        -0.03997010737657547,
        -0.12147201597690582,
        0.11733041703701019,
        -0.12756028771400452,
        0.0624447762966156,
        -0.12395253032445908,
        -0.03165500983595848,
        0.014960524626076221,
        0.20154397189617157,
        0.08854679018259048,
        -0.11413378268480301,
        -0.2263195812702179,
        -0.19628216326236725,
        -0.08975736796855927,
        0.004542814567685127,
        -0.11508897691965103,
        0.10880675911903381,
        -0.07140697538852692,
        -0.041818272322416306,
        -0.23620276153087616,
        -0.1378868669271469,
        0.3335440754890442,
        0.13451875746250153,
        0.13888908922672272,
        0.12023662775754929,
        0.20710739493370056,
        0.20759399235248566,
        0.11825401335954666,
        -0.015622846782207489,
        -0.09375279396772385,
        -0.17013444006443024,
        0.09263737499713898,
        0.07169608771800995,
        -0.1123380959033966,
        0.05539409816265106,
        -0.23278748989105225,
        -0.19492775201797485,
        0.20008514821529388,
        0.25847214460372925,
        -0.12855087220668793,
        0.11450546979904175,
        0.11400425434112549,
        -0.11478273570537567,
        -0.11453429609537125,
        -0.004923253785818815,
        0.04518633335828781,
        0.23443815112113953
      ]
    },
    {
      "weights": [
        [
          -0.4740225374698639,
          -0.019342467188835144,
          -0.06936199963092804,
          -0.0420086570084095,
          -0.04323523864150047,
          0.023229574784636497,
          -0.8671355843544006,
          -0.41131097078323364,
          -0.02360212802886963,
          -0.626795768737793,
          0.5270318388938904,
          -0.3135795295238495,
          -0.5081661343574524,
          -0.1821625530719757,
          0.12839582562446594,
          -0.26049333810806274,
          -0.3320077657699585,
          0.8752008676528931,
          -1.3086985349655151,
          -0.46591174602508545,
          0.04896126314997673,
          -0.08118589967489243,
          0.5612519383430481,
          -0.05730760097503662,
          0.8216567635536194,
          -0.7959204316139221,
          0.7915248274803162,
          -0.5596656799316406,
          -0.11778496950864792,
          -0.7000877857208252,
          0.7241640686988831,
          0.8033232092857361,
          -0.09130752831697464,
          -0.606197714805603,
          -0.6490740776062012,
          -0.48727837204933167,
          0.774617075920105,
          1.167861819267273,
          -0.02519383281469345,
          -0.6201556324958801,
          -0.364640474319458,
          -0.355855256319046,
          -0.24031449854373932,
          -0.13402052223682404,
          0.11214594542980194,
          -0.40478795766830444,
          0.17851302027702332,
          0.24244274199008942,
          0.45684656500816345,
          -0.4432074725627899,
          -1.2765837907791138,
          -0.5587192177772522,
          -0.2603195905685425,
          -0.251800537109375,
          -0.3048033118247986,
          -0.27209383249282837,
          0.17300504446029663,
          0.6695770025253296,
          -0.46869146823883057,
          0.1804453432559967
        ],
        [
          -1.3134664297103882,
          -0.12788304686546326,
          -0.7700309157371521,
          0.8041743636131287,
          -0.07449489831924438,
          -0.13708405196666718,
          -1.0909186601638794,
          -0.2929929196834564,
          0.03498416766524315,
          0.7887617349624634,
          -0.9359514713287354,
          -0.07747408747673035,
          -0.3670763671398163,
          -0.2852556109428406,
          -0.15070752799510956,
          -0.2551351487636566,
          -0.3002277612686157,
          0.8555623292922974,
          0.03385879844427109,
          -0.4414333403110504,
          -0.0803215429186821,
          0.26750603318214417,
          0.4890863597393036,
          1.080865502357483,
          -1.0322178602218628,
          0.08393137156963348,
          -0.6165505647659302,
          -0.9365507960319519,
          -0.30237138271331787,
          0.844002902507782,
          -0.31636011600494385,
          -1.3833383321762085,
          -1.2278149127960205,
          0.008758239448070526,
          -0.14684732258319855,
          0.05600334703922272,
          -0.37229761481285095,
          -0.24313275516033173,
          0.0945444330573082,
          -0.2827278971672058,
          -0.21040254831314087,
          -1.3051787614822388,
          -0.8062263131141663,
          0.4196208417415619,
          -0.22431418299674988,
          -0.14565366506576538,
          -0.23110011219978333,
          -0.5883246064186096,
          0.05510485917329788,
          -0.305749773979187,
          -0.6761549115180969,
          0.7395175695419312,
          -0.23045164346694946,
          0.03199903294444084,
          -0.004951701033860445,
          -0.8097869157791138,
          -0.9335750937461853,
          1.0310461521148682,
          1.1726670265197754,
          0.020561203360557556
        ],
        [
          1.1278176307678223,
          -0.1738063544034958,
          0.788447380065918,
          -1.2088439464569092,
          -0.5083810687065125,
          -0.4692090153694153,
          0.2651858627796173,
          -0.1479000449180603,
          0.49429503083229065,
          0.5762184262275696,
          0.7281032204627991,
          -0.41373342275619507,
          -0.11067432910203934,
          -0.5002526044845581,
          -0.7634586095809937,
          -0.7465085387229919,
          0.4442855715751648,
          -0.43656763434410095,
          0.3379167914390564,
          0.3675540089607239,
          -0.4144762456417084,
          -0.5317135453224182,
          0.757193386554718,
          -1.2404383420944214,
          0.1494043916463852,
          0.2511175274848938,
          -0.1750791072845459,
          0.8039141893386841,
          0.3405376970767975,
          -0.6015226244926453,
          -1.136169672012329,
          -0.11641980707645416,
          0.98166823387146,
          0.06911283731460571,
          -0.004515578038990498,
          -0.7371178865432739,
          0.4186893403530121,
          -0.5401131510734558,
          -0.574690580368042,
          0.8523841500282288,
          -0.2089633196592331,
          1.3383736610412598,
          -0.10054611414670944,
          -1.2090613842010498,
          -0.37245288491249084,
          0.28789427876472473,
          0.3916723132133484,
          -1.04579758644104,
          -0.8429340124130249,
          0.1304471641778946,
          0.31413331627845764,
          -0.0818188488483429,
          0.1992061585187912,
          -0.842569887638092,
          -0.1932573765516281,
          0.7006884217262268,
          0.17164009809494019,
          0.6361968517303467,
          -0.9513821601867676,
          -0.8295095562934875
        ],
        [
          -0.22148410975933075,
          -0.23453806340694427,
          -1.074424386024475,
          0.06555316597223282,
          0.12305932492017746,
          0.06508558988571167,
          0.22285935282707214,
          -0.42123615741729736,
          -0.12785722315311432,
          -0.5471497178077698,
          -1.0157761573791504,
          0.004293867852538824,
          0.9150112867355347,
          0.02257721871137619,
          -0.0035756686702370644,
          -0.29360291361808777,
          -0.21695592999458313,
          -0.6549102067947388,
          0.926355242729187,
          -0.9246644377708435,
          -0.17601445317268372,
          -0.32465389370918274,
          -1.132323980331421,
          0.022190788760781288,
          0.24958619475364685,
          0.7488458156585693,
          0.45665502548217773,
          0.12665969133377075,
          -0.2915104627609253,
          -1.1578460931777954,
          0.24574784934520721,
          0.13495849072933197,
          -0.13501304388046265,
          1.154370665550232,
          -0.5106120109558105,
          -0.8282524347305298,
          -1.0544191598892212,
          -1.116136908531189,
          -0.022017374634742737,
          -0.3211821913719177,
          -0.6912851333618164,
          -0.0930003970861435,
          -0.5956724882125854,
          0.413621723651886,
          0.011376943439245224,
          -0.23225483298301697,
          -0.7442938685417175,
          -0.38029745221138,
          0.37930580973625183,
          -0.245456725358963,
          1.0142996311187744,
          -1.0925720930099487,
          -0.11161655187606812,
          0.014933476224541664,
          1.18033766746521,
          -0.2937891185283661,
          1.1356831789016724,
          -0.5510678887367249,
          -0.7466574311256409,
          0.10473468154668808
        ],
        [
          0.7453182935714722,
          -0.32379066944122314,
          0.45419830083847046,
          0.12669804692268372,
          -0.21153630316257477,
          0.13618254661560059,
          0.5331552624702454,
          0.06179894879460335,
          0.06581811606884003,
          -0.9718242287635803,
          0.7970038056373596,
          -0.20225706696510315,
          -0.9931691288948059,
          0.06411232054233551,
          -0.036270368844270706,
          -0.140449658036232,
          0.05231689289212227,
          -0.537120521068573,
          -0.35235974192619324,
          0.9375536441802979,
          0.22206445038318634,
          -0.4532584846019745,
          -0.9951956272125244,
          0.7135359048843384,
          -0.7367392778396606,
          -0.0010725450702011585,
          -1.265779733657837,
          -0.15734770894050598,
          -0.25295689702033997,
          0.8992379903793335,
          -0.451474666595459,
          0.39124029874801636,
          -0.43316784501075745,
          -1.1964653730392456,
          -0.13779513537883759,
          0.9362190365791321,
          0.26215869188308716,
          -0.284334659576416,
          0.04444563016295433,
          -0.5920642018318176,
          0.15085537731647491,
          -0.29677465558052063,
          0.5129303336143494,
          -0.3128165602684021,
          0.014276942238211632,
          -0.2284025400876999,
          0.05992051959037781,
          0.9411135911941528,
          -0.36257922649383545,
          -0.19561678171157837,
          -0.866229772567749,
          0.9654130339622498,
          -0.202219158411026,
          -0.22643771767616272,
          -1.056565761566162,
          -0.39568763971328735,
          -1.0413780212402344,
          -0.9856731295585632,
          -0.0314304381608963,
          0.024339230731129646
        ],
        [
          -0.23443002998828888,
          -0.4020741581916809,
          0.0267340037971735,
          -0.10946821421384811,
          0.37267792224884033,
          0.8195667862892151,
          -0.03591972216963768,
          0.5712603330612183,
          0.09823252260684967,
          0.19224464893341064,
          -0.07265152037143707,
          0.6699256300926208,
          0.11889241635799408,
          0.46925559639930725,
          -0.6724772453308105,
          0.7629604339599609,
          -0.4585472345352173,
          -0.14597971737384796,
          -0.3588219881057739,
          0.15955978631973267,
          0.35417282581329346,
          0.4091806709766388,
          -0.21083922684192657,
          -0.30283087491989136,
          0.00874785240739584,
          -0.3204658031463623,
          0.4239320755004883,
          0.2921452820301056,
          -0.6279243230819702,
          -0.051426634192466736,
          -0.41380274295806885,
          -0.07729051262140274,
          0.2997535169124603,
          -0.01155178528279066,
          0.6762809157371521,
          -0.04094420745968819,
          0.43665680289268494,
          0.36317262053489685,
          0.6064221858978271,
          0.26634007692337036,
          0.1944161355495453,
          0.2695946991443634,
          -0.224578395485878,
          -0.2006482630968094,
          0.3199703097343445,
          -0.43217989802360535,
          0.10129749029874802,
          -0.3096679449081421,
          -0.44539403915405273,
          -0.542687714099884,
          0.49942833185195923,
          -0.1315903663635254,
          -0.7347138524055481,
          0.8264036178588867,
          -0.14508984982967377,
          0.26295268535614014,
          -0.05193549022078514,
          -0.40191346406936646,
          0.47892022132873535,
          0.27991464734077454
        ]
      ],
      "biases": [
        -0.38363316655158997,
        -0.2630710303783417,
        -0.20438608527183533,
        -0.1535004824399948,
        -0.2511170506477356,
        -0.024703433737158775
      ]
    }
  ],
  "inputLookup": null,
  "inputLookupLength": 0,
  "outputLookup": {
    "A": 0,
    "E": 1,
    "I": 2,
    "O": 3,
    "U": 4,
    "S": 5
  },
  "outputLookupLength": 6,
  "options": {
    "inputSize": 0,
    "outputSize": 0,
    "binaryThresh": 0.5,
    "log": true,
    "logPeriod": 100,
    "activation": "sigmoid",
    "iterations": 10000,
    "hiddenLayers": [
      60
    ],
    "errorThresh": 0.005,
    "learningRate": 0.00009999999999999999
  },
  "trainOpts": {
    "activation": "sigmoid",
    "iterations": 10000,
    "errorThresh": 0.005,
    "log": true,
    "logPeriod": 100,
    "leakyReluAlpha": 0.01,
    "learningRate": 0.00009999999999999999,
    "momentum": 0.1,
    "callbackPeriod": 10,
    "timeout": "Infinity",
    "beta1": 0.9,
    "beta2": 0.999,
    "epsilon": 1e-8
  }
}