{
  "type": "NeuralNetwork",
  "sizes": [
    40,
    60,
    5
  ],
  "layers": [
    {
      "weights": [],
      "biases": []
    },
    {
      "weights": [
        [
          -0.0335642509162426,
          0.11820521950721741,
          -0.021804191172122955,
          0.07461132854223251,
          -0.09726546704769135,
          -0.11819629371166229,
          -0.13712607324123383,
          -0.25326380133628845,
          -0.16318534314632416,
          -0.0962282195687294,
          0.0837106853723526,
          -0.20348083972930908,
          -0.09986501187086105,
          0.12491099536418915,
          0.18350960314273834,
          0.12808123230934143,
          0.03969796746969223,
          0.14640392363071442,
          -0.01414585206657648,
          0.07540753483772278,
          0.06133251637220383,
          0.10753519833087921,
          0.05020888149738312,
          0.10322760790586472,
          0.20157359540462494,
          0.044601909816265106,
          0.075426384806633,
          0.1418083906173706,
          0.25237658619880676,
          -0.10977128148078918,
          -0.04098944738507271,
          -0.149510458111763,
          -0.15133516490459442,
          0.13338951766490936,
          0.2686128318309784,
          -0.05301439017057419,
          -0.06285539269447327,
          -0.040201738476753235,
          -0.22015655040740967,
          -0.22148607671260834
        ],
        [
          -0.08150334656238556,
          -0.11957031488418579,
          -0.2847839295864105,
          0.012448827736079693,
          -0.06865689903497696,
          -0.15309369564056396,
          0.10909806191921234,
          -0.20821000635623932,
          0.001273033907637,
          -0.14764679968357086,
          -0.029958609491586685,
          0.0009196916362270713,
          -0.10193703323602676,
          -0.02998918481171131,
          -0.12812593579292297,
          -0.030184773728251457,
          -0.15269331634044647,
          -0.003698135958984494,
          -0.016607873141765594,
          0.15044152736663818,
          0.3049957752227783,
          -0.5826061367988586,
          -0.17341116070747375,
          0.22783532738685608,
          0.3462110161781311,
          0.11325567960739136,
          -0.28437381982803345,
          -0.05510605499148369,
          -0.2966953217983246,
          -0.3343874216079712,
          0.16047990322113037,
          0.03009827248752117,
          0.13422474265098572,
          -0.09988779574632645,
          -0.057917673140764236,
          0.10035461187362671,
          0.1254519373178482,
          0.17869602143764496,
          0.01837104931473732,
          0.15494364500045776
        ],
        [
          -0.26952311396598816,
          0.035913363099098206,
          -0.10488617420196533,
          0.216558575630188,
          0.1328810155391693,
          0.061413127928972244,
          0.14220266044139862,
          0.17727278172969818,
          0.2538062632083893,
          0.11852981895208359,
          0.1733112633228302,
          0.031059935688972473,
          0.13719990849494934,
          0.01984981819987297,
          0.1288105994462967,
          0.14099256694316864,
          -0.09976014494895935,
          0.046242982149124146,
          -0.118894062936306,
          0.10788848251104355,
          -0.08756526559591293,
          -0.15212242305278778,
          0.2878010869026184,
          0.10163992643356323,
          -0.18651126325130463,
          -0.20467306673526764,
          0.2483290731906891,
          -0.3285854160785675,
          -0.15956898033618927,
          0.1635102927684784,
          -0.05396448075771332,
          0.2217409908771515,
          0.054110582917928696,
          -0.2281629592180252,
          -0.19595760107040405,
          -0.08131430298089981,
          0.05393831804394722,
          0.3431747555732727,
          -0.07793819904327393,
          0.0658871978521347
        ],
        [
          -0.06530782580375671,
          -0.24855919182300568,
          0.06715299934148788,
          -0.15081478655338287,
          -0.22047491371631622,
          -0.048809442669153214,
          -0.339676171541214,
          -0.22498255968093872,
          -0.27631935477256775,
          -0.0949847549200058,
          -0.18266618251800537,
          0.06241874769330025,
          -0.09128500521183014,
          -0.20020286738872528,
          -0.17715373635292053,
          0.19383247196674347,
          0.025254644453525543,
          0.14121073484420776,
          0.19401749968528748,
          -0.08875817805528641,
          -0.06403188407421112,
          -0.16288769245147705,
          0.14309437572956085,
          -0.09872588515281677,
          0.2585262656211853,
          -0.10440171509981155,
          -0.150477334856987,
          0.11186327785253525,
          -0.3152916431427002,
          -0.5451511144638062,
          -0.5907830595970154,
          0.34995555877685547,
          -0.38428178429603577,
          -0.7199374437332153,
          0.20818309485912323,
          -0.3875280022621155,
          -0.21234293282032013,
          0.415218323469162,
          0.5098399519920349,
          -0.2655360698699951
        ],
        [
          0.18857407569885254,
          -0.19973208010196686,
          0.1607346087694168,
          0.03438740223646164,
          -0.17112629115581512,
          0.08960847556591034,
          0.19346368312835693,
          0.0684768483042717,
          0.13546384871006012,
          -0.05062070116400719,
          -0.09547023475170135,
          0.05772286280989647,
          -0.03861204907298088,
          0.05855972319841385,
          0.0710088387131691,
          -0.05356711149215698,
          -0.13782833516597748,
          -0.16042391955852509,
          0.03538920357823372,
          0.025604834780097008,
          -0.15520302951335907,
          -0.15851682424545288,
          -0.1557326763868332,
          0.0900229811668396,
          -0.15358074009418488,
          -0.13020272552967072,
          0.08028596639633179,
          -0.11719515919685364,
          -0.14810796082019806,
          -0.12120471894741058,
          0.015008457005023956,
          0.08277680724859238,
          -0.14204290509223938,
          0.12069834768772125,
          -0.0584605410695076,
          0.02603767067193985,
          -0.08506663888692856,
          -0.1840173900127411,
          -0.08667824417352676,
          0.08008496463298798
        ],
        [
          -0.1347963660955429,
          0.032911330461502075,
          0.03201780468225479,
          0.2753334939479828,
          0.003229475114494562,
          -0.21819934248924255,
          -0.1913231760263443,
          0.018358400091528893,
          0.06314422935247421,
          0.12176546454429626,
          -0.06561683118343353,
          -0.021932244300842285,
          -0.10228623449802399,
          0.2108391970396042,
          0.004710487090051174,
          0.15783318877220154,
          0.1427018791437149,
          0.14953552186489105,
          -0.13559848070144653,
          -0.07007963955402374,
          -0.10116074979305267,
          0.16798891127109528,
          0.06973454356193542,
          -0.584730327129364,
          -0.3450990319252014,
          -0.06344722211360931,
          0.064548559486866,
          0.142202228307724,
          -0.22296762466430664,
          -0.21561197936534882,
          0.07965404540300369,
          0.0738791674375534,
          0.20106758177280426,
          0.2641673982143402,
          0.031933143734931946,
          0.0927441269159317,
          -0.052849285304546356,
          0.0621771439909935,
          -0.10419069975614548,
          0.09474662691354752
        ],
        [
          -0.13517841696739197,
          -0.10728772729635239,
          -0.07655080407857895,
          0.18366234004497528,
          -0.14692002534866333,
          -0.19215308129787445,
          -0.16188210248947144,
          0.06546535342931747,
          -0.1985967755317688,
          -0.02861175499856472,
          -0.052653104066848755,
          -0.13358433544635773,
          -0.12854205071926117,
          0.06858471781015396,
          0.11487366259098053,
          0.18373768031597137,
          -0.1502169370651245,
          -0.021448707208037376,
          -0.1422593593597412,
          -0.05023827403783798,
          -0.1690739393234253,
          0.08143758028745651,
          -0.17128227651119232,
          -0.008997134864330292,
          0.2327636182308197,
          -0.11580938845872879,
          0.02062937803566456,
          -0.13123121857643127,
          -0.03697236254811287,
          -0.18617840111255646,
          -0.16191844642162323,
          -0.057827115058898926,
          0.030774252489209175,
          -0.1781219094991684,
          -0.11851907521486282,
          -0.2085668295621872,
          0.1496739387512207,
          -0.18981726467609406,
          -0.14498071372509003,
          0.1814688742160797
        ],
        [
          0.03803074359893799,
          -0.17866875231266022,
          -0.1750716269016266,
          0.07503689080476761,
          0.13257965445518494,
          0.013128959573805332,
          0.11809085309505463,
          0.04068262502551079,
          -0.06677831709384918,
          -0.13678474724292755,
          0.014835823327302933,
          -0.038701653480529785,
          -0.008436492644250393,
          -0.11724173277616501,
          0.14756660163402557,
          -0.15362077951431274,
          0.06899984180927277,
          0.01713886298239231,
          -0.054061856120824814,
          0.18713058531284332,
          0.19703491032123566,
          0.1880590170621872,
          -0.10362350940704346,
          0.19181138277053833,
          0.126085564494133,
          -0.017476344481110573,
          0.07031368464231491,
          -0.03278600424528122,
          -0.02652495540678501,
          0.04416048154234886,
          0.013381767086684704,
          0.09272217750549316,
          -0.11029123514890671,
          -0.0705888569355011,
          0.023738928139209747,
          0.17947949469089508,
          -0.13885179162025452,
          0.18520592153072357,
          0.004464598372578621,
          -0.1323314607143402
        ],
        [
          -0.10941000282764435,
          0.18305785953998566,
          -0.09354003518819809,
          0.0670556053519249,
          0.4472956955432892,
          0.27646446228027344,
          0.2512929439544678,
          0.0057433289475739,
          0.17241500318050385,
          -0.02893252484500408,
          0.036894820630550385,
          -0.09524711966514587,
          0.2391762137413025,
          0.2593088746070862,
          0.13683468103408813,
          0.1117304340004921,
          0.195792093873024,
          0.020924242213368416,
          -0.12082920968532562,
          0.1625950038433075,
          0.06388256698846817,
          0.08605628460645676,
          -0.028706170618534088,
          -0.40854260325431824,
          -0.24896377325057983,
          0.5761024951934814,
          0.15864664316177368,
          0.07407718896865845,
          -0.0791735053062439,
          -0.260165810585022,
          -0.2134961187839508,
          0.10493256896734238,
          0.22657829523086548,
          0.32700613141059875,
          -0.01553331594914198,
          0.08498657494783401,
          -0.2422041893005371,
          -0.28222352266311646,
          0.08560185134410858,
          0.11108390986919403
        ],
        [
          0.1418813318014145,
          -0.04825755953788757,
          0.12104079872369766,
          0.03630347549915314,
          0.08470401167869568,
          -0.13740737736225128,
          -0.0080777732655406,
          -0.142100989818573,
          -0.07033490389585495,
          -0.14320778846740723,
          0.1606956273317337,
          -0.19965967535972595,
          -0.1921006441116333,
          0.04818706586956978,
          -0.18096451461315155,
          0.12104064971208572,
          -0.19350303709506989,
          -0.06592149287462234,
          0.06831520795822144,
          -0.17034469544887543,
          0.055001989006996155,
          0.1407202184200287,
          0.08246290683746338,
          0.054654769599437714,
          -0.045522358268499374,
          -0.125374898314476,
          -0.05387537181377411,
          0.1036699041724205,
          0.07320809364318848,
          -0.18512646853923798,
          -0.1658577024936676,
          0.09992552548646927,
          -0.11530368030071259,
          0.12910646200180054,
          0.19446270167827606,
          0.16638174653053284,
          0.16135179996490479,
          0.20489917695522308,
          0.015162639319896698,
          0.0944608747959137
        ],
        [
          -0.16261771321296692,
          0.1232413649559021,
          -0.15919184684753418,
          0.104400634765625,
          -0.03305951505899429,
          0.2613512873649597,
          -0.0512092225253582,
          -0.03060595877468586,
          0.269727498292923,
          0.0796591192483902,
          0.008879470638930798,
          0.24180090427398682,
          0.032161131501197815,
          0.24193350970745087,
          -0.0640687346458435,
          0.13756687939167023,
          -0.1483391970396042,
          0.10591894388198853,
          -0.09592707455158234,
          -0.021190064027905464,
          0.2091977447271347,
          -0.10509555041790009,
          -0.0853792056441307,
          -0.2562921941280365,
          0.23075856268405914,
          0.2959771454334259,
          0.13595391809940338,
          0.2684580981731415,
          -0.10601335763931274,
          -0.2364010512828827,
          -0.0930585190653801,
          -0.12962797284126282,
          -0.03676082566380501,
          0.18391314148902893,
          0.1442674994468689,
          0.05364352464675903,
          0.15046842396259308,
          -0.023007629439234734,
          -0.3115288317203522,
          0.07582207769155502
        ],
        [
          -0.07406557351350784,
          -0.26053112745285034,
          0.006747630424797535,
          -0.11211204528808594,
          0.28682810068130493,
          0.11794859170913696,
          0.1016213595867157,
          0.08697696030139923,
          -0.09596874564886093,
          0.0020110965706408024,
          0.12119797617197037,
          0.1367568075656891,
          0.15783077478408813,
          -0.07515709102153778,
          0.04650651291012764,
          -0.031102361157536507,
          -0.13577580451965332,
          0.21939381957054138,
          0.16465291380882263,
          -0.1915397197008133,
          0.04671753570437431,
          -0.1076599583029747,
          -0.20872712135314941,
          0.03664407134056091,
          0.3974996507167816,
          0.7282588481903076,
          -0.014448679983615875,
          -0.13915380835533142,
          0.21107874810695648,
          -0.052522461861371994,
          -0.10251057147979736,
          -0.21523906290531158,
          -0.09769053012132645,
          0.005323909223079681,
          -0.23666025698184967,
          -0.29745039343833923,
          -0.21166768670082092,
          -0.3113378584384918,
          -0.42639800906181335,
          -0.29890233278274536
        ],
        [
          0.01213152427226305,
          -0.16520336270332336,
          -0.015319077298045158,
          -0.10303618758916855,
          0.027486035600304604,
          0.1342235803604126,
          -0.10430300980806351,
          0.003455337369814515,
          -0.05415451154112816,
          -0.21285134553909302,
          -0.028997844085097313,
          0.14196354150772095,
          0.19060640037059784,
          -0.1888567954301834,
          -0.12333100289106369,
          0.07643843442201614,
          -0.09304195642471313,
          -0.015273178927600384,
          0.12043029069900513,
          -0.06539711356163025,
          0.024438977241516113,
          -0.0626729354262352,
          -0.2200641632080078,
          -0.1283600628376007,
          -0.12578564882278442,
          -0.10795322805643082,
          0.012293788604438305,
          0.0982118621468544,
          0.20101693272590637,
          0.37372758984565735,
          0.3264302909374237,
          0.19344186782836914,
          0.10111973434686661,
          0.03591524809598923,
          -0.17256498336791992,
          -0.18363039195537567,
          -0.21916894614696503,
          -0.4660018980503082,
          -0.03954348713159561,
          0.11315644532442093
        ],
        [
          0.09584332257509232,
          0.13482549786567688,
          -0.1927119642496109,
          -0.022310707718133926,
          0.15323962271213531,
          -0.07856231927871704,
          -0.03780258074402809,
          0.09381043910980225,
          0.17131809890270233,
          0.1706535518169403,
          -0.06970106065273285,
          -0.06276454031467438,
          0.09863617271184921,
          -0.06086596101522446,
          0.16535697877407074,
          -0.14780475199222565,
          -0.04049862548708916,
          0.01945568434894085,
          -0.0631253570318222,
          0.1923447549343109,
          -0.09317569434642792,
          -0.210764080286026,
          -0.017411567270755768,
          -0.18449532985687256,
          0.03702344745397568,
          0.13624165952205658,
          -0.18063776195049286,
          0.06493878364562988,
          -0.15764205157756805,
          0.14693738520145416,
          -0.12070737779140472,
          0.061669204384088516,
          -0.14273427426815033,
          0.16447147727012634,
          -0.04130169004201889,
          -0.15015286207199097,
          -0.005819590296596289,
          -0.14394845068454742,
          0.06421655416488647,
          0.15808476507663727
        ],
        [
          0.02994764968752861,
          0.11830542236566544,
          0.1183602437376976,
          -0.0008528234320692718,
          -0.040733836591243744,
          -0.16412393748760223,
          -0.04182669147849083,
          -0.021380791440606117,
          -0.28285565972328186,
          -0.03773275017738342,
          -0.2095116376876831,
          -0.11932426691055298,
          -0.012211532332003117,
          0.0067792050540447235,
          -0.2308414876461029,
          -0.05129679664969444,
          -0.1675111949443817,
          0.018367625772953033,
          0.0446583591401577,
          0.020335711538791656,
          0.16165043413639069,
          -0.01706179417669773,
          -0.3019372224807739,
          0.23734024167060852,
          0.014521988108754158,
          0.3166198134422302,
          0.23275455832481384,
          0.06232075393199921,
          0.07465126365423203,
          0.03143908455967903,
          -0.06855224817991257,
          -0.13839246332645416,
          -0.2944084703922272,
          -0.08689635992050171,
          -0.11949415504932404,
          -0.051456574350595474,
          0.13519690930843353,
          -0.2148013561964035,
          -0.3123942017555237,
          -0.25139111280441284
        ],
        [
          -0.2222716063261032,
          -0.15016458928585052,
          -0.011124731972813606,
          0.11783536523580551,
          0.34489351511001587,
          0.05638948455452919,
          0.32325682044029236,
          0.1672162413597107,
          -0.016444217413663864,
          -0.06818971037864685,
          -0.0028448528610169888,
          0.2679460942745209,
          -0.03336983919143677,
          0.2994615137577057,
          0.18449874222278595,
          0.2831587493419647,
          0.19399189949035645,
          -0.08335413038730621,
          -0.02180658094584942,
          -0.06393040716648102,
          0.10273413360118866,
          0.07528246194124222,
          -0.21031656861305237,
          -0.3539787232875824,
          0.266600638628006,
          0.4493195116519928,
          0.21160855889320374,
          0.14895185828208923,
          0.018995676189661026,
          -0.25186285376548767,
          -0.046365536749362946,
          -0.11729366332292557,
          0.04449635371565819,
          0.1394987255334854,
          0.0021303899120539427,
          0.2639855444431305,
          -0.287479043006897,
          -0.4588005244731903,
          -0.45251572132110596,
          -0.11383212357759476
        ],
        [
          -0.13402873277664185,
          -0.16079488396644592,
          0.09353841096162796,
          -0.10518542677164078,
          0.13914735615253448,
          -0.01911262609064579,
          -0.10384783893823624,
          0.035241205245256424,
          -0.2292378544807434,
          0.19898183643817902,
          -0.02016717754304409,
          0.2571386694908142,
          -0.053584493696689606,
          0.09247123450040817,
          0.09207329154014587,
          -0.008651119656860828,
          -0.08847185224294662,
          -0.15323761105537415,
          0.09405609220266342,
          -0.07426103949546814,
          -0.10467023402452469,
          -0.18912777304649353,
          -0.3252115845680237,
          0.5459314584732056,
          0.3231858015060425,
          0.4711987376213074,
          0.07043147832155228,
          0.023647615686058998,
          0.10732240974903107,
          -0.0031885942444205284,
          -0.2563878893852234,
          -0.19592009484767914,
          -0.07571166753768921,
          -0.11561460047960281,
          -0.342068076133728,
          -0.3560643792152405,
          -0.05969754606485367,
          0.3976890444755554,
          -0.11694689840078354,
          -0.03782261162996292
        ],
        [
          -0.020616397261619568,
          -0.06112450733780861,
          -0.006994031369686127,
          -0.01843324489891529,
          -0.117486372590065,
          -0.16883040964603424,
          -0.16918937861919403,
          0.1477847546339035,
          -0.01233660988509655,
          -0.19614361226558685,
          -0.1323421150445938,
          0.1098533645272255,
          0.09594644606113434,
          0.16794131696224213,
          -0.15200750529766083,
          -0.08818864822387695,
          0.19767531752586365,
          0.0941309928894043,
          0.11863423138856888,
          0.15337109565734863,
          0.06370948255062103,
          0.1399034559726715,
          0.13075022399425507,
          -0.15380635857582092,
          0.1277817189693451,
          -0.11729343235492706,
          0.1457933932542801,
          -0.15712280571460724,
          0.02096031978726387,
          -0.07375015318393707,
          0.18881812691688538,
          -0.09086744487285614,
          0.10036216676235199,
          0.14141586422920227,
          -0.08271679282188416,
          0.08831129223108292,
          -0.13334934413433075,
          -0.11596646904945374,
          0.14284025132656097,
          0.09775698184967041
        ],
        [
          -0.0008142477017827332,
          0.07956100255250931,
          -0.17755407094955444,
          0.017454443499445915,
          0.10796572268009186,
          -0.04057091102004051,
          0.11237003654241562,
          0.025844410061836243,
          -0.05760183185338974,
          0.1757347285747528,
          -0.15575361251831055,
          0.039773426949977875,
          -0.12393868714570999,
          -0.07504051923751831,
          -0.04207699000835419,
          -0.13647617399692535,
          0.05122264102101326,
          -0.1502964049577713,
          -0.0063589029014110565,
          -0.1641257405281067,
          0.1998397260904312,
          -0.11368788033723831,
          -0.05645378679037094,
          -0.20707353949546814,
          -0.09776151925325394,
          0.015597449615597725,
          -0.09532038122415543,
          -0.2114395797252655,
          -0.16950233280658722,
          -0.09220579266548157,
          -0.04221181944012642,
          0.06497284024953842,
          -0.06693161278963089,
          0.1809011697769165,
          0.099728062748909,
          0.045486655086278915,
          -0.10221613943576813,
          -0.14252111315727234,
          -0.008235783316195011,
          0.11274547874927521
        ],
        [
          0.024366118013858795,
          -0.22815710306167603,
          0.04352442920207977,
          0.03260388225317001,
          0.00590904988348484,
          0.11523514240980148,
          -0.07101964205503464,
          -0.06814424693584442,
          -0.022698337212204933,
          0.073429636657238,
          0.14168138802051544,
          0.15277530252933502,
          0.0690227672457695,
          -0.07797089964151382,
          0.027817152440547943,
          -0.12991103529930115,
          0.016559097915887833,
          0.14976225793361664,
          -0.13033640384674072,
          0.03867712616920471,
          -0.09130275994539261,
          -0.1764233410358429,
          -0.30072134733200073,
          0.41379040479660034,
          0.24692702293395996,
          0.4027138948440552,
          0.12495510280132294,
          0.08973288536071777,
          0.043863777071237564,
          -0.1191042810678482,
          -0.49190038442611694,
          -0.37317100167274475,
          0.03661740571260452,
          -0.26105937361717224,
          -0.1790430098772049,
          -0.3082748353481293,
          -0.10288878530263901,
          0.02262170985341072,
          -0.24541015923023224,
          -0.025358064100146294
        ],
        [
          -0.20904822647571564,
          -0.17028291523456573,
          -0.050360701978206635,
          -0.04161670804023743,
          -0.04423538222908974,
          0.050164610147476196,
          0.1945231556892395,
          -0.02511509694159031,
          -0.02136426977813244,
          0.015634043142199516,
          -0.03019966185092926,
          -0.04746115580201149,
          0.10858719795942307,
          0.0019560286309570074,
          -0.024349216371774673,
          0.1519259214401245,
          0.16883321106433868,
          0.03689428046345711,
          -0.09881944954395294,
          -0.1466897428035736,
          -0.09352739155292511,
          -0.11321787536144257,
          -0.2073875218629837,
          0.05091375485062599,
          -0.3283684551715851,
          -0.37004297971725464,
          -0.22874796390533447,
          -0.34320685267448425,
          -0.23389846086502075,
          -0.13686129450798035,
          0.14430665969848633,
          0.33239850401878357,
          0.033500686287879944,
          -0.06752636283636093,
          -0.10068423300981522,
          -0.033437326550483704,
          -0.12128540873527527,
          0.037605538964271545,
          0.009174365550279617,
          0.06774749606847763
        ],
        [
          0.026038939133286476,
          0.10244868695735931,
          -0.09579059481620789,
          0.050227195024490356,
          0.0661638006567955,
          -0.05522086098790169,
          -0.07416639477014542,
          -0.1397174894809723,
          -0.026733415201306343,
          0.13816146552562714,
          0.15633459389209747,
          0.046767231076955795,
          0.16360792517662048,
          0.08386419713497162,
          -0.014189009554684162,
          0.10306145995855331,
          0.14765222370624542,
          0.1976562738418579,
          -0.09539850056171417,
          -0.004063077736645937,
          -0.001044320990331471,
          -0.17121601104736328,
          -0.3129498362541199,
          0.07015290856361389,
          0.32783424854278564,
          0.3346506655216217,
          -0.27644041180610657,
          -0.4894999861717224,
          -0.33715811371803284,
          -0.07213155925273895,
          0.07655114680528641,
          0.13098861277103424,
          -0.00006548589590238407,
          0.2592070698738098,
          -0.09378425031900406,
          0.1169382780790329,
          -0.05776592716574669,
          0.14365090429782867,
          0.221378356218338,
          0.053723130375146866
        ],
        [
          0.16766659915447235,
          0.03816189244389534,
          0.004345615394413471,
          -0.019706763327121735,
          0.04428618773818016,
          0.07667823135852814,
          -0.11719940602779388,
          0.040205035358667374,
          0.17815141379833221,
          -0.15706123411655426,
          -0.09151308983564377,
          -0.01654650643467903,
          0.05791672691702843,
          0.11920793354511261,
          0.043851058930158615,
          -0.08598381280899048,
          -0.15850117802619934,
          0.14868603646755219,
          -0.15978704392910004,
          0.13573235273361206,
          -0.07614587247371674,
          -0.2459544539451599,
          0.11156047880649567,
          0.000060697195294778794,
          -0.0857989564538002,
          0.11120503395795822,
          0.07417010515928268,
          -0.0554390512406826,
          0.09281778335571289,
          -0.10261644423007965,
          -0.10848061740398407,
          0.04986308142542839,
          0.1451491415500641,
          0.0519593171775341,
          -0.06955952197313309,
          0.010960249230265617,
          -0.12372182309627533,
          0.08216043561697006,
          0.18728215992450714,
          0.08161526173353195
        ],
        [
          -0.11336268484592438,
          0.0354849211871624,
          -0.11828359961509705,
          0.10511451214551926,
          0.14949722588062286,
          -0.13393357396125793,
          0.10563632100820541,
          0.051020700484514236,
          -0.07532339543104172,
          0.0647621676325798,
          0.1789904236793518,
          0.10310368239879608,
          0.03918600454926491,
          0.10302997380495071,
          -0.08493319153785706,
          0.022517383098602295,
          0.007901347242295742,
          0.11992644518613815,
          -0.19452545046806335,
          0.13944311439990997,
          0.17966057360172272,
          0.20625318586826324,
          0.14795011281967163,
          -0.11793147027492523,
          -0.1313871294260025,
          -0.10758008807897568,
          0.09836336225271225,
          -0.1741287112236023,
          -0.13647788763046265,
          0.1284714788198471,
          0.16238144040107727,
          -0.09371136128902435,
          -0.08417745679616928,
          -0.07622529566287994,
          0.003010374028235674,
          0.1183227077126503,
          0.06289542466402054,
          0.08905967324972153,
          0.055197812616825104,
          0.15046073496341705
        ],
        [
          0.10486464947462082,
          0.15256528556346893,
          0.12834452092647552,
          0.15545256435871124,
          0.1518980711698532,
          0.03969872370362282,
          0.0506897047162056,
          -0.03290555253624916,
          0.1476806402206421,
          0.1806103140115738,
          0.10977271944284439,
          -0.14234665036201477,
          -0.06513325124979019,
          -0.10646552592515945,
          0.04613489657640457,
          -0.035586703568696976,
          -0.06703342497348785,
          0.18339256942272186,
          0.03553907945752144,
          0.09472722560167313,
          -0.0541127547621727,
          0.29283544421195984,
          -0.08901522308588028,
          0.18900693953037262,
          -0.1122884675860405,
          0.20868152379989624,
          0.10359443724155426,
          0.35105806589126587,
          0.0038858677726238966,
          0.08594749122858047,
          0.06261923164129257,
          -0.2619638442993164,
          0.25787296891212463,
          0.2033255249261856,
          -0.04519926756620407,
          -0.04070516303181648,
          -0.21924445033073425,
          0.05704610422253609,
          0.14374341070652008,
          0.33706650137901306
        ],
        [
          -0.10666793584823608,
          -0.04378749057650566,
          -0.16869483888149261,
          0.006674119736999273,
          -0.03313841298222542,
          0.13422779738903046,
          0.09378332644701004,
          0.19279485940933228,
          0.04546307772397995,
          -0.17702551186084747,
          -0.012744644656777382,
          0.06334974616765976,
          -0.19688470661640167,
          -0.13957370817661285,
          0.01068469975143671,
          -0.0460483655333519,
          0.045475270599126816,
          0.1566355675458908,
          0.13978925347328186,
          -0.07569743692874908,
          0.1986757516860962,
          0.13836629688739777,
          -0.07701421529054642,
          0.18222294747829437,
          0.1125389114022255,
          0.15325486660003662,
          -0.13338631391525269,
          -0.14225390553474426,
          0.1965292990207672,
          0.0013840228784829378,
          -0.1270347386598587,
          0.04333079606294632,
          -0.00516212172806263,
          0.1036866307258606,
          -0.16742774844169617,
          0.06563718616962433,
          0.0069815064780414104,
          -0.0622832290828228,
          -0.0733809694647789,
          -0.16121090948581696
        ],
        [
          0.1033170148730278,
          0.11927343159914017,
          0.06671854853630066,
          0.023154715076088905,
          -0.008544865064322948,
          0.13552869856357574,
          -0.11612149327993393,
          0.1394723802804947,
          -0.19538715481758118,
          -0.16890184581279755,
          -0.010280616581439972,
          0.14787301421165466,
          0.07355242222547531,
          0.18951384723186493,
          -0.1772923320531845,
          -0.08666200190782547,
          0.18829694390296936,
          0.12877027690410614,
          0.02383439987897873,
          -0.09748800843954086,
          0.1685275435447693,
          0.12195722758769989,
          -0.08624911308288574,
          0.1674618273973465,
          -0.1758071482181549,
          -0.02813131920993328,
          0.0013688955223187804,
          0.01453055627644062,
          -0.14017850160598755,
          -0.1460777372121811,
          0.12205550819635391,
          -0.1489637941122055,
          -0.05131318420171738,
          0.04148760437965393,
          -0.1887926608324051,
          -0.15053606033325195,
          -0.15631750226020813,
          -0.09523628652095795,
          0.04953262582421303,
          -0.14921480417251587
        ],
        [
          0.14016221463680267,
          -0.08942604809999466,
          0.04906690493226051,
          0.03969487175345421,
          0.19063888490200043,
          0.1841345727443695,
          0.12984465062618256,
          -0.14093874394893646,
          0.015378031879663467,
          0.08295240253210068,
          -0.05184915289282799,
          0.060934580862522125,
          0.19048762321472168,
          0.027644265443086624,
          -0.1898088902235031,
          -0.18413294851779938,
          0.11344584822654724,
          -0.033358994871377945,
          -0.19469748437404633,
          -0.06705237925052643,
          0.21537207067012787,
          0.16221976280212402,
          -0.040646422654390335,
          0.008473413065075874,
          -0.034920405596494675,
          0.20040015876293182,
          0.1303635984659195,
          -0.010341502726078033,
          0.04977724328637123,
          0.09951363503932953,
          -0.11168434470891953,
          -0.03299716114997864,
          -0.12194561213254929,
          0.12100177258253098,
          0.12037116289138794,
          0.10705067962408066,
          0.03205634281039238,
          -0.10581991076469421,
          0.032079339027404785,
          -0.07793178409337997
        ],
        [
          0.1943492591381073,
          -0.09595505893230438,
          -0.14888784289360046,
          -0.2272089123725891,
          0.07960733026266098,
          -0.025929762050509453,
          -0.20023871958255768,
          0.17866136133670807,
          0.13007205724716187,
          0.0008246258948929608,
          0.06592787802219391,
          0.1540287882089615,
          -0.17049938440322876,
          0.06003866344690323,
          -0.04176689684391022,
          0.11480367928743362,
          -0.20138734579086304,
          0.03583737462759018,
          -0.15954968333244324,
          0.09596438705921173,
          -0.03989224508404732,
          0.17452460527420044,
          0.23102408647537231,
          -0.22832392156124115,
          -0.6809635758399963,
          -0.21534380316734314,
          -0.005220398306846619,
          0.71983802318573,
          -0.24776622653007507,
          -0.004284053575247526,
          0.13704726099967957,
          -0.2080927938222885,
          0.7553710341453552,
          0.17928080260753632,
          0.14300304651260376,
          0.6144223809242249,
          0.30684202909469604,
          0.15569061040878296,
          -0.16940319538116455,
          -0.23176701366901398
        ],
        [
          -0.15879009664058685,
          0.5390680432319641,
          0.20078042149543762,
          -0.13860881328582764,
          -0.07059786468744278,
          0.019782468676567078,
          -0.03476047143340111,
          0.08412203192710876,
          0.28494396805763245,
          0.16291852295398712,
          0.24606916308403015,
          0.20372292399406433,
          0.17897412180900574,
          0.10580956935882568,
          0.10375940054655075,
          0.015763048082590103,
          0.05079743638634682,
          0.10962799936532974,
          -0.007796189282089472,
          -0.12892070412635803,
          0.07135363668203354,
          -0.23065876960754395,
          0.06543391942977905,
          0.3831227719783783,
          0.17889748513698578,
          -0.13670194149017334,
          0.4162548780441284,
          0.029562700539827347,
          -0.05191933363676071,
          0.1407976597547531,
          -0.1917811930179596,
          0.23879152536392212,
          0.03510694578289986,
          -0.6293955445289612,
          -0.21043707430362701,
          -0.41159600019454956,
          -0.040578603744506836,
          0.046684570610523224,
          -0.32925423979759216,
          -0.4581741392612457
        ],
        [
          0.23332761228084564,
          -0.058890778571367264,
          -0.09748991578817368,
          -0.13391396403312683,
          -0.36010676622390747,
          -0.13920599222183228,
          -0.002402819227427244,
          -0.10392525792121887,
          -0.18603722751140594,
          -0.09231922030448914,
          0.18840129673480988,
          -0.12688982486724854,
          -0.042168889194726944,
          0.18162746727466583,
          -0.1454949975013733,
          -0.08814108371734619,
          0.16895247995853424,
          -0.062151357531547546,
          -0.12874944508075714,
          0.054664310067892075,
          -0.13140869140625,
          -0.1350705623626709,
          -0.34103235602378845,
          0.2864467203617096,
          0.2856960594654083,
          0.30891507863998413,
          0.012717748992145061,
          -0.15739037096500397,
          -0.16396331787109375,
          -0.20920853316783905,
          -0.33779600262641907,
          -0.09267544746398926,
          -0.13317976891994476,
          -0.10632631927728653,
          0.10231488198041916,
          -0.2805340886116028,
          0.05487772449851036,
          -0.2830851376056671,
          -0.352748304605484,
          0.20989805459976196
        ],
        [
          0.0622466616332531,
          -0.027690934017300606,
          -0.07585068792104721,
          -0.10646647959947586,
          0.0953909158706665,
          0.25056904554367065,
          -0.0015200106427073479,
          0.12991003692150116,
          0.14305423200130463,
          0.04737376794219017,
          0.14700593054294586,
          -0.16322223842144012,
          0.06680869311094284,
          0.025538824498653412,
          -0.17514023184776306,
          0.09866371005773544,
          0.18038995563983917,
          0.15802906453609467,
          0.18391278386116028,
          -0.12229501456022263,
          -0.1856774389743805,
          0.09981227666139603,
          0.027426702901721,
          -0.12869752943515778,
          -0.12455568462610245,
          -0.11062505841255188,
          0.12136101722717285,
          -0.05175759270787239,
          -0.06347215175628662,
          0.04646647348999977,
          -0.004407191649079323,
          0.13023315370082855,
          0.2048267126083374,
          0.018258893862366676,
          -0.28999990224838257,
          -0.022045478224754333,
          0.05949384346604347,
          -0.019744040444493294,
          0.08597641438245773,
          0.23366957902908325
        ],
        [
          -0.5490610599517822,
          0.1021764799952507,
          0.23171666264533997,
          0.28323012590408325,
          0.34943827986717224,
          0.09141013771295547,
          0.25681453943252563,
          0.25048497319221497,
          0.0717671737074852,
          0.15748947858810425,
          0.249532088637352,
          0.07046456634998322,
          0.2383681833744049,
          0.039989352226257324,
          0.1540174037218094,
          -0.055189091712236404,
          -0.15667732059955597,
          0.13483713567256927,
          -0.00024529456277377903,
          0.12651029229164124,
          -0.03191962093114853,
          0.1365235596895218,
          -0.09397339075803757,
          -0.06783846765756607,
          0.08685704320669174,
          0.12982982397079468,
          0.3205741047859192,
          -0.038390520960092545,
          0.1944686770439148,
          0.09850254654884338,
          -0.3075699210166931,
          0.15994611382484436,
          0.45543184876441956,
          0.279681921005249,
          -0.2387644350528717,
          -0.5246408581733704,
          -0.3216308355331421,
          -0.25127217173576355,
          -0.2972623109817505,
          0.6032698750495911
        ],
        [
          0.11532654613256454,
          0.007363911718130112,
          -0.11012725532054901,
          -0.000494134787004441,
          -0.09581568837165833,
          -0.07993781566619873,
          -0.14575669169425964,
          0.14436224102973938,
          -0.17225469648838043,
          -0.07126818597316742,
          0.006610384210944176,
          -0.06967730820178986,
          0.0003143019857816398,
          -0.04004350304603577,
          0.021559979766607285,
          -0.029188549146056175,
          0.18728962540626526,
          0.17753054201602936,
          0.13352647423744202,
          -0.10975708812475204,
          0.18152974545955658,
          0.1100081279873848,
          0.1683940887451172,
          0.09967617690563202,
          -0.0865258201956749,
          -0.1457044631242752,
          0.11851535737514496,
          0.05599511042237282,
          0.004994597751647234,
          -0.17416387796401978,
          0.04359808564186096,
          -0.18792036175727844,
          -0.030113376677036285,
          0.1776159405708313,
          -0.14027997851371765,
          -0.05774003639817238,
          -0.07365822792053223,
          0.12670458853244781,
          -0.002364749787375331,
          -0.09215348958969116
        ],
        [
          0.10299467295408249,
          -0.06945504993200302,
          -0.1169271320104599,
          -0.17018550634384155,
          -0.15691030025482178,
          0.0813697874546051,
          -0.006318253464996815,
          0.07901760190725327,
          -0.029508741572499275,
          -0.019135739654302597,
          -0.04845815151929855,
          0.08548637479543686,
          -0.13085275888442993,
          -0.15644867718219757,
          0.015005119144916534,
          -0.19317251443862915,
          0.02636612020432949,
          0.007268854416906834,
          -0.12916156649589539,
          0.09931319206953049,
          -0.03501640260219574,
          0.11163942515850067,
          -0.010801070369780064,
          0.10839927941560745,
          -0.05817655846476555,
          -0.014091357588768005,
          0.4136880040168762,
          0.1999455839395523,
          0.012022516690194607,
          0.11336493492126465,
          -0.25260108709335327,
          0.022663768380880356,
          -0.23369935154914856,
          -0.4485139548778534,
          -0.09961961954832077,
          -0.6353196501731873,
          -0.378154993057251,
          -0.2906116247177124,
          -0.49626559019088745,
          -0.04349448159337044
        ],
        [
          -0.03908117115497589,
          0.02140507474541664,
          -0.10950373113155365,
          -0.048025790601968765,
          -0.16977296769618988,
          -0.03271578252315521,
          -0.19546589255332947,
          0.0001023928343784064,
          -0.02970981039106846,
          -0.022049201652407646,
          0.07476828247308731,
          0.2000487595796585,
          -0.035450857132673264,
          -0.11589331924915314,
          0.01865493133664131,
          -0.09946221113204956,
          -0.16261151432991028,
          0.11689354479312897,
          0.08169814944267273,
          -0.11064625531435013,
          0.20337006449699402,
          0.08564773201942444,
          0.14164872467517853,
          -0.20601941645145416,
          0.1536032110452652,
          0.0738515555858612,
          -0.08964096754789352,
          -0.025425685569643974,
          0.017690615728497505,
          -0.1893330067396164,
          0.06279031932353973,
          0.159921795129776,
          -0.07835674285888672,
          -0.13877840340137482,
          0.1378680318593979,
          -0.1658731997013092,
          -0.06692610681056976,
          0.001492139184847474,
          -0.023093126714229584,
          -0.011872958391904831
        ],
        [
          0.05637159198522568,
          -0.22788242995738983,
          0.08930303901433945,
          -0.1965518295764923,
          -0.1306256651878357,
          -0.18172678351402283,
          -0.28119197487831116,
          0.04525277763605118,
          0.09674328565597534,
          -0.1818559318780899,
          0.03427525982260704,
          -0.2886204123497009,
          0.021579941734671593,
          -0.13279643654823303,
          -0.2017359435558319,
          -0.11280618607997894,
          -0.13413105905056,
          0.09002643823623657,
          0.11995033919811249,
          0.1044078916311264,
          -0.0364089235663414,
          0.06287487596273422,
          0.1753915697336197,
          -0.4917946457862854,
          -0.0837993323802948,
          -0.2131248563528061,
          -0.33472535014152527,
          0.1360633224248886,
          0.04038124531507492,
          0.28932514786720276,
          0.08374051004648209,
          -0.31079867482185364,
          0.43088310956954956,
          0.06854568421840668,
          0.08850007504224777,
          0.47483453154563904,
          -0.08668837696313858,
          -0.1932331621646881,
          0.023672353476285934,
          -0.3161233961582184
        ],
        [
          -0.18903936445713043,
          -0.08489730209112167,
          0.05522656440734863,
          0.18897289037704468,
          0.09016000479459763,
          -0.11457931250333786,
          0.18724215030670166,
          -0.04807211086153984,
          0.19776883721351624,
          -0.18629072606563568,
          -0.0375470332801342,
          -0.01541322935372591,
          0.1544979065656662,
          0.07043454796075821,
          0.07276815921068192,
          0.07139687240123749,
          0.16595743596553802,
          0.07404103130102158,
          -0.09415405243635178,
          -0.04508819431066513,
          0.000749165890738368,
          -0.19332043826580048,
          0.03834826871752739,
          0.05071311444044113,
          0.11691785603761673,
          0.14310094714164734,
          0.1696733981370926,
          -0.04730702564120293,
          0.0042784083634614944,
          -0.028978727757930756,
          0.11890242248773575,
          0.1758221983909607,
          -0.009096919558942318,
          0.08006501942873001,
          -0.06925320625305176,
          -0.02684413082897663,
          0.07422127574682236,
          0.04678789898753166,
          -0.08039470762014389,
          0.09906275570392609
        ],
        [
          0.13416236639022827,
          0.05540662258863449,
          0.128694549202919,
          -0.029052654281258583,
          -0.10262350738048553,
          -0.1636558622121811,
          0.10986713320016861,
          -0.17461620271205902,
          -0.11494450271129608,
          0.21547831594944,
          -0.023918509483337402,
          -0.014975824393332005,
          0.023295409977436066,
          -0.04613592103123665,
          0.17656858265399933,
          0.12996730208396912,
          0.10085129737854004,
          -0.031237279996275902,
          0.15443050861358643,
          -0.1988837867975235,
          -0.01594446413218975,
          -0.1332143396139145,
          -0.45887964963912964,
          0.26360973715782166,
          0.49393951892852783,
          0.24285800755023956,
          -0.3670787215232849,
          -0.38881033658981323,
          -0.3749285638332367,
          -0.05783412978053093,
          0.12903299927711487,
          0.07803526520729065,
          0.15672621130943298,
          -0.13781625032424927,
          0.15079079568386078,
          -0.08815138041973114,
          0.1566612422466278,
          0.011849308386445045,
          0.2997763752937317,
          -0.08874481171369553
        ],
        [
          0.12394404411315918,
          0.03587542101740837,
          0.027956802397966385,
          -0.1697734296321869,
          -0.2123035490512848,
          -0.011663222685456276,
          -0.00005331269858288579,
          0.08452117443084717,
          0.12832710146903992,
          -0.017964305356144905,
          -0.03720134124159813,
          0.02444557659327984,
          -0.04823768138885498,
          -0.2135721892118454,
          -0.2713814973831177,
          0.04177222028374672,
          -0.10888814181089401,
          -0.029867710545659065,
          0.0021431653294712305,
          -0.17834097146987915,
          -0.025587430223822594,
          0.0035005968529731035,
          0.2809951901435852,
          -0.0666448324918747,
          -0.1348571926355362,
          -0.2728714942932129,
          0.05415796488523483,
          0.18239077925682068,
          0.127168670296669,
          0.18961526453495026,
          0.15499837696552277,
          -0.09153903275728226,
          -0.2281702607870102,
          -0.5010666251182556,
          -0.30472615361213684,
          -0.35591965913772583,
          0.15575821697711945,
          -0.0785665512084961,
          0.08685023337602615,
          0.26229792833328247
        ],
        [
          0.1044183000922203,
          -0.030377723276615143,
          -0.16915273666381836,
          0.07664179056882858,
          -0.12726753950119019,
          -0.07541339099407196,
          0.17370446026325226,
          0.07513349503278732,
          0.13122043013572693,
          0.031630780547857285,
          0.17607934772968292,
          -0.08380129933357239,
          -0.012691516429185867,
          0.0041571613401174545,
          -0.08746054023504257,
          -0.1339782476425171,
          -0.19522033631801605,
          0.002285412512719631,
          -0.08485569804906845,
          0.13859574496746063,
          0.11985845863819122,
          0.12591226398944855,
          0.15088750422000885,
          0.03052162192761898,
          0.1548166126012802,
          0.06553240865468979,
          -0.11629121005535126,
          0.06490371376276016,
          -0.025970205664634705,
          -0.09125218540430069,
          0.03815274313092232,
          -0.16805417835712433,
          0.05306393653154373,
          -0.10705429315567017,
          -0.10063965618610382,
          0.11481844633817673,
          -0.024057744070887566,
          0.1513686627149582,
          0.15157011151313782,
          -0.03085879608988762
        ],
        [
          -0.024744896218180656,
          -0.20034855604171753,
          -0.06930167227983475,
          -0.08922619372606277,
          0.04185028374195099,
          -0.1624293178319931,
          -0.017985863611102104,
          0.11355163156986237,
          -0.1876101940870285,
          -0.1780226230621338,
          -0.037597257643938065,
          0.09733737260103226,
          -0.10523068904876709,
          0.05909514054656029,
          -0.008418257348239422,
          -0.05493749678134918,
          -0.18213728070259094,
          -0.08960723131895065,
          -0.05221379175782204,
          0.11274147778749466,
          -0.1431126892566681,
          -0.14425180852413177,
          -0.06206631287932396,
          -0.09720859676599503,
          -0.1170985996723175,
          -0.09564697742462158,
          0.07547444105148315,
          -0.04433198645710945,
          0.10042009502649307,
          -0.14913584291934967,
          0.1843804270029068,
          0.03151332214474678,
          0.04914185777306557,
          0.051847390830516815,
          -0.02438347414135933,
          -0.08946450054645538,
          0.057015955448150635,
          -0.11453171819448471,
          -0.035175688564777374,
          -0.05557083338499069
        ],
        [
          -0.03451671823859215,
          -0.057657428085803986,
          -0.008829568512737751,
          0.34982529282569885,
          0.2987948954105377,
          0.33135735988616943,
          -0.015084310434758663,
          0.1859511435031891,
          0.29474160075187683,
          0.3327198326587677,
          0.0224615391343832,
          0.14140580594539642,
          -0.08009576052427292,
          0.22345317900180817,
          -0.019244754686951637,
          -0.12400800734758377,
          0.01710699312388897,
          0.12492561340332031,
          0.17114010453224182,
          -0.043156322091817856,
          -0.12587663531303406,
          0.027321897447109222,
          0.13541828095912933,
          -0.044936034828424454,
          -0.023568319156765938,
          -0.08212867379188538,
          0.0054383669048547745,
          0.15506115555763245,
          0.2424880713224411,
          0.261869341135025,
          -0.013603398576378822,
          0.256115585565567,
          0.09970878809690475,
          0.1265421062707901,
          -0.03282224386930466,
          0.02417016588151455,
          0.08427605777978897,
          0.23396065831184387,
          0.17608937621116638,
          0.35690566897392273
        ],
        [
          0.13947159051895142,
          -0.1643981635570526,
          -0.002940102946013212,
          0.1729140281677246,
          0.09714808315038681,
          0.051157716661691666,
          0.013198028318583965,
          0.06973548233509064,
          -0.16331759095191956,
          0.09971990436315536,
          0.044665589928627014,
          -0.17267321050167084,
          -0.11849892139434814,
          0.1321193426847458,
          0.1728871613740921,
          0.164654940366745,
          -0.021909471601247787,
          -0.19487951695919037,
          0.0649038702249527,
          -0.19404688477516174,
          -0.27883365750312805,
          -0.0029775516595691442,
          0.10062499344348907,
          -0.13256584107875824,
          0.17405594885349274,
          -0.01332167536020279,
          -0.08404611796140671,
          -0.002922285348176956,
          0.0915854349732399,
          0.1806812584400177,
          -0.08805890381336212,
          0.1184411495923996,
          -0.05303802341222763,
          0.05640718713402748,
          -0.12527918815612793,
          0.1952439397573471,
          0.17369000613689423,
          -0.1553882509469986,
          0.13512323796749115,
          0.19445283710956573
        ],
        [
          0.1403546929359436,
          0.0676748976111412,
          0.16246330738067627,
          0.22609318792819977,
          -0.12068198621273041,
          -0.15100263059139252,
          -0.09376324713230133,
          -0.10580611228942871,
          -0.07861007004976273,
          0.06019530072808266,
          -0.0322384275496006,
          0.13680440187454224,
          0.0011678925948217511,
          0.13604608178138733,
          -0.1820085048675537,
          -0.14692670106887817,
          -0.1387024074792862,
          0.10339302569627762,
          -0.19926190376281738,
          -0.16222912073135376,
          -0.03346678242087364,
          -0.12031631171703339,
          0.1967095583677292,
          -0.020979590713977814,
          -0.2801995873451233,
          -0.1470644623041153,
          0.07529877126216888,
          0.2272537350654602,
          0.06748364865779877,
          0.0022992321755737066,
          0.07860132306814194,
          0.23378750681877136,
          0.040463779121637344,
          -0.16960269212722778,
          -0.04076315462589264,
          -0.13516002893447876,
          0.17529863119125366,
          0.1889399141073227,
          0.3142990171909332,
          0.14080938696861267
        ],
        [
          0.09527965635061264,
          -0.088870570063591,
          0.10667214542627335,
          -0.014050213620066643,
          0.034372057765722275,
          0.21366184949874878,
          -0.0658770352602005,
          0.020621974021196365,
          0.01964510977268219,
          0.13226144015789032,
          0.08791996538639069,
          0.056525081396102905,
          0.01632617600262165,
          0.0657704621553421,
          0.05693451687693596,
          -0.15759192407131195,
          -0.01285992469638586,
          0.08021380007266998,
          -0.05372569337487221,
          -0.13482189178466797,
          0.3014489710330963,
          0.17552036046981812,
          0.05100730434060097,
          -0.08957049250602722,
          0.16355830430984497,
          0.13478316366672516,
          0.050759561359882355,
          -0.043355219066143036,
          0.14907358586788177,
          0.054064568132162094,
          -0.11227568984031677,
          -0.13861025869846344,
          -0.14140884578227997,
          0.1628206968307495,
          -0.05620993301272392,
          -0.1869266927242279,
          0.011506251990795135,
          -0.19675390422344208,
          -0.1335974782705307,
          0.11400920152664185
        ],
        [
          -0.0582626648247242,
          0.011971067637205124,
          -0.07449523359537125,
          0.16549921035766602,
          -0.12601037323474884,
          -0.17733944952487946,
          -0.08769401162862778,
          0.06219685077667236,
          -0.10152091085910797,
          0.1710345447063446,
          0.005544835235923529,
          0.16052834689617157,
          -0.0946006178855896,
          0.0695624127984047,
          0.15311062335968018,
          0.014427863992750645,
          0.06785941869020462,
          -0.19662614166736603,
          -0.14044983685016632,
          -0.17234081029891968,
          -0.11834154278039932,
          -0.17111258208751678,
          0.04502811282873154,
          -0.0006725293933413923,
          0.06751210242509842,
          -0.26695969700813293,
          -0.14751583337783813,
          -0.13193628191947937,
          -0.0795966312289238,
          -0.22128206491470337,
          -0.04851163551211357,
          -0.025599293410778046,
          -0.08764144033193588,
          0.07548163831233978,
          0.039098646491765976,
          0.013421156443655491,
          0.211903914809227,
          0.13752588629722595,
          0.2541559338569641,
          0.11658940464258194
        ],
        [
          -0.14019638299942017,
          0.34896379709243774,
          -0.12422167509794235,
          0.09107784181833267,
          -0.15301677584648132,
          0.18247799575328827,
          -0.04973909258842468,
          -0.1271822601556778,
          0.04632625728845596,
          -0.016401665285229683,
          -0.01763923652470112,
          0.017303356900811195,
          -0.15508176386356354,
          -0.20564468204975128,
          -0.13383568823337555,
          0.10320811718702316,
          -0.03896744176745415,
          -0.10446331650018692,
          0.002318176906555891,
          0.1510554403066635,
          -0.08543366193771362,
          -0.05939408764243126,
          0.06267206370830536,
          0.025972772389650345,
          0.15358710289001465,
          -0.10609474778175354,
          -0.4145633280277252,
          -0.2533695697784424,
          -0.24183009564876556,
          -0.3546411395072937,
          0.010943159461021423,
          0.36317911744117737,
          -0.124668188393116,
          -0.16268397867679596,
          0.05647548288106918,
          -0.060418348759412766,
          -0.27153280377388,
          -0.30120041966438293,
          0.14868029952049255,
          -0.3609933853149414
        ],
        [
          0.13921299576759338,
          0.038603536784648895,
          0.07936487346887589,
          -0.15961261093616486,
          -0.09494153410196304,
          -0.01842590421438217,
          -0.08005572855472565,
          0.1581355631351471,
          0.020686255767941475,
          0.1169574186205864,
          0.12044787406921387,
          -0.1584632247686386,
          0.11307890713214874,
          0.14009708166122437,
          0.061682675033807755,
          -0.15268301963806152,
          0.1741650551557541,
          -0.09267621487379074,
          -0.028218571096658707,
          0.1482800394296646,
          -0.15240119397640228,
          -0.14704841375350952,
          -0.17284126579761505,
          0.058850549161434174,
          0.023963212966918945,
          0.03608780354261398,
          0.024624589830636978,
          -0.12883128225803375,
          -0.15458324551582336,
          0.1202998086810112,
          -0.058075401932001114,
          -0.029483867809176445,
          0.051525428891181946,
          0.06084375083446503,
          -0.024901537224650383,
          0.019319698214530945,
          -0.08080490678548813,
          0.11465226858854294,
          -0.017739785835146904,
          -0.17521928250789642
        ],
        [
          -0.38452640175819397,
          0.030225440859794617,
          -0.11159293353557587,
          0.09989969432353973,
          0.3048262298107147,
          0.4614008367061615,
          0.4048502445220947,
          0.1599574089050293,
          0.06216577813029289,
          0.3101656138896942,
          0.4360397756099701,
          0.24790754914283752,
          0.2159375250339508,
          0.3100048899650574,
          0.1776934564113617,
          -0.06907307356595993,
          0.10737420618534088,
          0.0661115050315857,
          -0.026240363717079163,
          0.06467689573764801,
          0.03798577934503555,
          -0.11393614113330841,
          -0.08143750578165054,
          0.058316200971603394,
          0.012395152822136879,
          0.5438821911811829,
          -0.22261203825473785,
          -0.06066200137138367,
          0.17300550639629364,
          -0.2689814865589142,
          0.09566886723041534,
          -0.06246635317802429,
          -0.0008086215239018202,
          0.18574611842632294,
          0.37762728333473206,
          0.13731347024440765,
          0.07340916246175766,
          -0.19539128243923187,
          -0.09055543690919876,
          -0.39704611897468567
        ],
        [
          -0.06703954935073853,
          -0.12091770768165588,
          -0.059478726238012314,
          0.08623752743005753,
          0.04213516041636467,
          0.04907654598355293,
          0.01735413447022438,
          -0.022386519238352776,
          -0.12526533007621765,
          -0.11412408947944641,
          0.07995828241109848,
          0.002415231429040432,
          0.0648561343550682,
          0.017047906294465065,
          0.10051977634429932,
          -0.19020988047122955,
          -0.055452924221754074,
          -0.10475762188434601,
          -0.026398036628961563,
          0.04906643554568291,
          0.23593279719352722,
          0.04614081233739853,
          0.14926926791667938,
          0.12019982188940048,
          -0.15528397262096405,
          0.017213212326169014,
          -0.16005878150463104,
          0.013153677806258202,
          0.157467320561409,
          0.03899611532688141,
          0.05986764281988144,
          0.06771691143512726,
          0.05786711722612381,
          -0.03749816492199898,
          0.00867913756519556,
          -0.004283826798200607,
          0.08313921093940735,
          -0.13720661401748657,
          0.05228232964873314,
          -0.017342546954751015
        ],
        [
          0.18635989725589752,
          -0.05580999329686165,
          0.02797524631023407,
          -0.1316259205341339,
          -0.011378224939107895,
          0.10569047182798386,
          -0.16211354732513428,
          0.06945855170488358,
          0.06565579026937485,
          0.03222056105732918,
          0.095932237803936,
          0.13262403011322021,
          0.16723348200321198,
          0.0695570781826973,
          -0.07612694799900055,
          0.208689346909523,
          -0.05235457792878151,
          -0.10985762625932693,
          -0.1412513554096222,
          -0.15167029201984406,
          0.12488549947738647,
          0.22059914469718933,
          -0.2594524025917053,
          -0.08127392828464508,
          0.5683606266975403,
          0.2865975499153137,
          0.5128417611122131,
          -0.011184265837073326,
          0.10955502092838287,
          -0.02570686675608158,
          -0.3126195967197418,
          -0.20162416994571686,
          0.062133558094501495,
          0.12049495428800583,
          0.07743854820728302,
          -0.6341150403022766,
          -0.5410440564155579,
          -0.2705196738243103,
          -0.01577213779091835,
          0.44711124897003174
        ],
        [
          0.2807590961456299,
          -0.11230240762233734,
          -0.06036051735281944,
          -0.15326547622680664,
          -0.08208633959293365,
          -0.259798139333725,
          -0.13752469420433044,
          0.006438601296395063,
          -0.1665187031030655,
          -0.16489988565444946,
          -0.08218012005090714,
          -0.18610355257987976,
          -0.2670983076095581,
          -0.14221833646297455,
          -0.2704882025718689,
          -0.14656661450862885,
          -0.20315919816493988,
          -0.1967879682779312,
          -0.004681446123868227,
          -0.07869929820299149,
          -0.03854229301214218,
          -0.08888735622167587,
          0.30253490805625916,
          0.05388939008116722,
          0.03591421991586685,
          -0.408208429813385,
          -0.013473509810864925,
          -0.1813272386789322,
          0.13570548593997955,
          0.03365242853760719,
          -0.09258145093917847,
          -0.044033315032720566,
          -0.17039614915847778,
          -0.1761680245399475,
          -0.06113627925515175,
          0.1372320055961609,
          0.27150776982307434,
          0.540269672870636,
          0.23720450699329376,
          0.10999545454978943
        ],
        [
          -0.15805776417255402,
          0.19552984833717346,
          -0.12928880751132965,
          -0.05795815587043762,
          0.13738901913166046,
          0.10815171152353287,
          0.2817244231700897,
          0.16628935933113098,
          0.2566584646701813,
          -0.12484156340360641,
          0.10328222066164017,
          -0.14730943739414215,
          -0.07683195918798447,
          0.007958085276186466,
          0.14654602110385895,
          -0.22153353691101074,
          0.05700824037194252,
          -0.1483958512544632,
          0.17403936386108398,
          -0.07677366584539413,
          0.13009019196033478,
          -0.2667786180973053,
          0.15236610174179077,
          0.3896499574184418,
          -0.2621663808822632,
          0.025446148589253426,
          -0.1184585765004158,
          -0.0902821272611618,
          0.004771708976477385,
          -0.10718534886837006,
          -0.10981640219688416,
          -0.02773883193731308,
          -0.06025322899222374,
          0.1319572776556015,
          0.15038171410560608,
          0.18923257291316986,
          0.3552134931087494,
          0.3845946490764618,
          0.1776990294456482,
          -0.36391985416412354
        ],
        [
          0.15306410193443298,
          0.18312612175941467,
          -0.00127097824588418,
          0.10727038979530334,
          -0.15611930191516876,
          -0.12767665088176727,
          -0.26496270298957825,
          -0.4103299677371979,
          -0.4077327847480774,
          -0.25188905000686646,
          -0.37647345662117004,
          -0.37009161710739136,
          -0.3263336420059204,
          -0.05848933383822441,
          0.1364397257566452,
          0.030937517061829567,
          0.08440530300140381,
          0.06425077468156815,
          0.12969470024108887,
          0.02336958982050419,
          0.003319005249068141,
          0.048458945006132126,
          0.2390226274728775,
          -0.22926050424575806,
          -0.1983518749475479,
          0.08002914488315582,
          -0.35040587186813354,
          -0.07328158617019653,
          0.07256758213043213,
          -0.08541823923587799,
          0.34334102272987366,
          0.13795879483222961,
          -0.14258189499378204,
          0.16407091915607452,
          -0.03147723153233528,
          0.17226603627204895,
          0.0135697852820158,
          -0.040428418666124344,
          0.358798623085022,
          0.4432072341442108
        ],
        [
          -0.42646661400794983,
          0.0894719734787941,
          -0.06725911051034927,
          0.3218579888343811,
          0.4773426353931427,
          0.26083987951278687,
          0.15449802577495575,
          0.265744149684906,
          0.34575706720352173,
          0.12713786959648132,
          0.22307327389717102,
          -0.12248412519693375,
          0.15350021421909332,
          0.0656193420290947,
          -0.13503961265087128,
          0.17325451970100403,
          0.2568362355232239,
          0.14223505556583405,
          0.03362974524497986,
          -0.06749460101127625,
          -0.0456453338265419,
          0.15291503071784973,
          -0.10652601718902588,
          -0.3091554641723633,
          -0.12257219105958939,
          0.04600217938423157,
          0.05462118238210678,
          -0.0628189966082573,
          -0.1173643097281456,
          -0.1364774852991104,
          -0.02294081076979637,
          -0.278299480676651,
          0.40410149097442627,
          0.2627412974834442,
          -0.08213937282562256,
          0.09074454754590988,
          -0.004034486599266529,
          -0.042827218770980835,
          0.09503863751888275,
          0.16817934811115265
        ],
        [
          -0.06688089668750763,
          -0.13618388772010803,
          0.2068152129650116,
          0.03738991916179657,
          0.01793579012155533,
          -0.14240019023418427,
          -0.19127123057842255,
          0.15484978258609772,
          0.10025932639837265,
          0.3027747869491577,
          0.20136693120002747,
          0.2017090916633606,
          0.32806673645973206,
          0.08416873216629028,
          0.002318162936717272,
          0.053842972964048386,
          -0.0005649430677294731,
          -0.11556984484195709,
          -0.17115001380443573,
          0.08100784569978714,
          0.0064368052408099174,
          0.06058477237820625,
          -0.28116118907928467,
          0.13098882138729095,
          -0.10037228465080261,
          0.14595423638820648,
          0.11195345968008041,
          0.14344675838947296,
          0.15863071382045746,
          0.1558217853307724,
          -0.29592031240463257,
          -0.24471107125282288,
          0.24849283695220947,
          -0.1661577969789505,
          -0.3174101710319519,
          -0.36043769121170044,
          -0.11492292582988739,
          0.3322606086730957,
          0.28435665369033813,
          0.005862801801413298
        ],
        [
          0.1499236673116684,
          -0.16221728920936584,
          -0.0774015560746193,
          0.028286755084991455,
          0.09939837455749512,
          -0.1424587219953537,
          -0.13206657767295837,
          0.006039196625351906,
          0.038733016699552536,
          -0.23584935069084167,
          -0.18122124671936035,
          -0.011208772659301758,
          -0.21267260611057281,
          0.0002007125149248168,
          0.12193126976490021,
          0.02981015108525753,
          0.18255621194839478,
          -0.13421674072742462,
          -0.10107515752315521,
          0.07103029638528824,
          0.18274609744548798,
          -0.05050251632928848,
          0.16754554212093353,
          0.06141868233680725,
          0.2626360356807709,
          0.07630009204149246,
          0.017488805577158928,
          0.19655443727970123,
          0.20578011870384216,
          0.025032110512256622,
          -0.06880880892276764,
          0.03134491294622421,
          0.23723915219306946,
          0.05759033188223839,
          0.04949420690536499,
          -0.017790570855140686,
          -0.25269511342048645,
          -0.21613134443759918,
          -0.039947882294654846,
          0.25934529304504395
        ],
        [
          0.15557365119457245,
          -0.10338930040597916,
          0.1071910634636879,
          -0.1271299421787262,
          -0.2528720796108246,
          -0.37432655692100525,
          -0.3578774333000183,
          -0.0071020363830029964,
          -0.08523247390985489,
          -0.17889481782913208,
          -0.023514103144407272,
          0.0743454247713089,
          0.007982021197676659,
          -0.14020808041095734,
          -0.1382821798324585,
          -0.10170214623212814,
          -0.027542611584067345,
          0.13499513268470764,
          0.05296069383621216,
          0.08662030100822449,
          0.04217073693871498,
          0.17082479596138,
          -0.12105242908000946,
          0.05098682641983032,
          0.2214016169309616,
          0.03946362063288689,
          -0.17294438183307648,
          0.11664485186338425,
          0.04491867125034332,
          -0.06656120717525482,
          -0.01609368622303009,
          -0.025405149906873703,
          -0.2837913930416107,
          0.0009464140748605132,
          0.23335348069667816,
          -0.07196779549121857,
          0.2163964956998825,
          -0.05704261362552643,
          -0.1507548689842224,
          -0.06379933655261993
        ],
        [
          0.001780975260771811,
          -0.08752086013555527,
          0.1139935553073883,
          -0.10405869781970978,
          0.17383916676044464,
          -0.07528378814458847,
          0.1685790866613388,
          -0.023960214108228683,
          -0.1973850578069687,
          0.02327609807252884,
          -0.019336111843585968,
          -0.03575020655989647,
          -0.07173474133014679,
          -0.015676792711019516,
          0.03621472790837288,
          -0.017402654513716698,
          0.1916494369506836,
          -0.03737199679017067,
          0.04613194242119789,
          -0.03748292475938797,
          0.12458299845457077,
          0.09460590034723282,
          -0.1427854299545288,
          -0.11520468443632126,
          -0.16221804916858673,
          -0.03014417365193367,
          0.04883221164345741,
          -0.07442522048950195,
          0.03349914401769638,
          -0.10058260709047318,
          -0.03255472332239151,
          0.08298017829656601,
          -0.02700789086520672,
          0.18021005392074585,
          0.07995115965604782,
          -0.1552921086549759,
          -0.017081165686249733,
          0.09835748374462128,
          0.04080406576395035,
          0.09218588471412659
        ]
      ],
      "biases": [
        -0.06705594062805176,
        0.18558451533317566,
        0.0767112672328949,
        0.16242432594299316,
        -0.03503451123833656,
        0.07533425837755203,
        -0.045902833342552185,
        0.20253048837184906,
        0.07096560299396515,
        -0.20031540095806122,
        -0.07411187887191772,
        -0.039056241512298584,
        -0.044104792177677155,
        0.12032145261764526,
        -0.19274021685123444,
        0.15529543161392212,
        -0.18600425124168396,
        -0.15241506695747375,
        0.13058951497077942,
        0.058563750237226486,
        0.2518307566642761,
        0.1239388957619667,
        0.09300575405359268,
        -0.0343935526907444,
        0.06610710918903351,
        0.06673868000507355,
        0.08915038406848907,
        -0.13900481164455414,
        0.1440296173095703,
        0.026500551030039787,
        -0.2644921839237213,
        -0.07344402372837067,
        0.36329635977745056,
        -0.18785540759563446,
        0.32501158118247986,
        -0.10352561622858047,
        -0.22046488523483276,
        0.15130293369293213,
        0.18470881879329681,
        0.06674423813819885,
        -0.1616484671831131,
        -0.030043957754969597,
        -0.034737881273031235,
        0.0030496346298605204,
        0.09993254393339157,
        -0.15367554128170013,
        -0.1644204705953598,
        -0.20619626343250275,
        -0.1247401311993599,
        0.06946682184934616,
        -0.04036727175116539,
        -0.09660203754901886,
        0.006346800830215216,
        0.1085374727845192,
        -0.04451041668653488,
        -0.035670533776283264,
        0.06637970358133316,
        -0.13804122805595398,
        0.06024864315986633,
        -0.03207918629050255
      ]
    },
    {
      "weights": [
        [
          0.3435732126235962,
          -0.5519528388977051,
          -0.9156120419502258,
          -0.008266576565802097,
          0.1392742246389389,
          0.93497633934021,
          0.07991552352905273,
          -0.32542702555656433,
          0.6436685919761658,
          -0.25626200437545776,
          0.5355197787284851,
          -1.0383057594299316,
          0.7521342635154724,
          0.011967195197939873,
          -0.17653213441371918,
          0.7915915250778198,
          -0.32006239891052246,
          -0.2625635862350464,
          -0.4213673174381256,
          -0.4941788911819458,
          -0.12969648838043213,
          -0.19919152557849884,
          0.18861618638038635,
          -0.232066810131073,
          -0.35742291808128357,
          -0.22164762020111084,
          -0.12481684982776642,
          -0.3374112546443939,
          0.6724073886871338,
          -0.055623866617679596,
          -0.25799182057380676,
          -0.39457017183303833,
          1.1536283493041992,
          -0.15963727235794067,
          -0.029782194644212723,
          -0.3071020841598511,
          0.24200789630413055,
          0.13215060532093048,
          -0.646335244178772,
          0.8886008858680725,
          -0.1838569939136505,
          0.0019037675810977817,
          -0.4152674674987793,
          0.07134243100881577,
          -0.5392798781394958,
          -0.07435571402311325,
          -0.16761226952075958,
          -0.5378559231758118,
          0.03541094437241554,
          -1.2013736963272095,
          -0.3148399293422699,
          0.6926018595695496,
          -1.0505892038345337,
          -1.2110496759414673,
          -0.2851436138153076,
          0.42108261585235596,
          0.37707167863845825,
          -0.12373001128435135,
          0.6583898067474365,
          -0.3707468807697296
        ],
        [
          -0.14910736680030823,
          0.4233638048171997,
          -0.023313436657190323,
          -0.5787212252616882,
          0.16073937714099884,
          -0.7816330790519714,
          -0.025950677692890167,
          -0.25470632314682007,
          0.8523432016372681,
          -0.13063685595989227,
          0.41188356280326843,
          1.4051662683486938,
          -0.18478313088417053,
          0.020667703822255135,
          0.09696134924888611,
          0.7606048583984375,
          -1.1731173992156982,
          -0.154447540640831,
          -0.385531485080719,
          -1.3100446462631226,
          -0.2037970870733261,
          0.13444668054580688,
          -0.13635466992855072,
          -0.06657249480485916,
          -0.1318611204624176,
          -0.18108202517032623,
          -0.2326560765504837,
          -0.3581755757331848,
          -1.5426499843597412,
          -0.6956322193145752,
          -1.2600486278533936,
          0.11763186752796173,
          -0.9271594882011414,
          -0.2281458079814911,
          -0.49157747626304626,
          -0.0979146957397461,
          -0.8421042561531067,
          -0.10210404545068741,
          0.2653646767139435,
          -0.41524961590766907,
          -0.11688480526208878,
          0.18583673238754272,
          0.1407114416360855,
          0.13267818093299866,
          0.013953224755823612,
          -0.37265744805336,
          -0.3122834861278534,
          0.9770745635032654,
          -0.03838934004306793,
          1.1809438467025757,
          -0.3345206081867218,
          0.6042886972427368,
          -0.2274031639099121,
          0.11763967573642731,
          1.3200072050094604,
          0.6051446795463562,
          -0.9134455919265747,
          -0.07677962630987167,
          -0.35504135489463806,
          -0.31338563561439514
        ],
        [
          -0.7585008144378662,
          0.863516628742218,
          0.0347987599670887,
          0.22016280889511108,
          -0.05627554655075073,
          0.4034002423286438,
          0.06958768516778946,
          -0.015858197584748268,
          -0.20181404054164886,
          0.15871743857860565,
          0.0009064131882041693,
          -0.040444571524858475,
          0.25940772891044617,
          -0.0015725549310445786,
          -0.9843491315841675,
          -0.3701138496398926,
          1.2242597341537476,
          0.026435257866978645,
          0.09670957177877426,
          1.2837622165679932,
          0.8896384835243225,
          0.6527197957038879,
          0.017713824287056923,
          -0.07213962078094482,
          -0.22249747812747955,
          -0.0837041363120079,
          -0.09954088926315308,
          -0.3524652421474457,
          0.7745023369789124,
          1.0146735906600952,
          1.1783959865570068,
          0.6408437490463257,
          0.6353432536125183,
          -0.05976909026503563,
          0.5694570541381836,
          -0.0041387928649783134,
          0.09476201981306076,
          -0.3026280403137207,
          0.9211298227310181,
          -0.6658675074577332,
          -0.21082036197185516,
          -0.05194481834769249,
          1.0040104389190674,
          0.05333694815635681,
          0.3671092391014099,
          0.055438634008169174,
          0.29750296473503113,
          -0.7868897914886475,
          -0.13101662695407867,
          0.6275215744972229,
          -0.2374231219291687,
          -0.34375083446502686,
          -0.5809210538864136,
          0.28868257999420166,
          -1.3331115245819092,
          -0.33987516164779663,
          0.9927406907081604,
          -0.7640716433525085,
          -0.800762414932251,
          0.11968354135751724
        ],
        [
          0.2664833068847656,
          -0.26379311084747314,
          -0.6874516010284424,
          -1.898761510848999,
          -0.09573856741189957,
          0.01713586412370205,
          0.023934507742524147,
          -0.15495415031909943,
          -1.0568169355392456,
          -0.2779972553253174,
          -0.7805653214454651,
          -0.20053412020206451,
          -0.9313774108886719,
          0.07499857246875763,
          0.2767913341522217,
          -0.6500375270843506,
          -0.17619600892066956,
          -0.21674051880836487,
          -0.1078706681728363,
          0.07309095561504364,
          -0.4752820134162903,
          -0.43612223863601685,
          0.15170493721961975,
          -0.20727252960205078,
          0.6581637859344482,
          -0.27885866165161133,
          -0.08020562678575516,
          -0.11015456169843674,
          1.2790085077285767,
          -1.1363807916641235,
          0.12801270186901093,
          -0.14387308061122894,
          -1.3014814853668213,
          -0.2658926844596863,
          -1.4844379425048828,
          -0.15569093823432922,
          0.9792122840881348,
          0.0926990807056427,
          -0.1530783474445343,
          0.7118830680847168,
          0.01864822953939438,
          0.1320735514163971,
          -0.5828262567520142,
          0.12322858721017838,
          -0.2999175786972046,
          -0.21762685477733612,
          -0.01225944422185421,
          0.8119842410087585,
          0.11653703451156616,
          -0.4835592210292816,
          -0.20572704076766968,
          -1.2307984828948975,
          0.8397861123085022,
          0.7717849612236023,
          0.19265970587730408,
          0.9039896726608276,
          -0.47912871837615967,
          0.40127551555633545,
          0.40944117307662964,
          -0.06009702757000923
        ],
        [
          -0.2306283563375473,
          -0.6172943115234375,
          0.28239449858665466,
          1.4681240320205688,
          0.19451455771923065,
          -0.7848662734031677,
          -0.2674296796321869,
          -0.1646568477153778,
          -0.2509485185146332,
          -0.12203291803598404,
          -0.08244272321462631,
          -0.7258610129356384,
          -0.2833471894264221,
          -0.11447294801473618,
          0.2724798917770386,
          -0.9188734292984009,
          -0.7513169050216675,
          -0.2770589292049408,
          -0.0167246051132679,
          -0.32030001282691956,
          0.33239680528640747,
          -1.0712864398956299,
          0.05277901515364647,
          -0.005101173650473356,
          -0.6676671504974365,
          -0.14729684591293335,
          -0.21254470944404602,
          -0.16138261556625366,
          -1.5941894054412842,
          1.4924731254577637,
          -0.4373295307159424,
          -0.022751152515411377,
          0.6530294418334961,
          0.008110063150525093,
          1.3033004999160767,
          -0.010361486114561558,
          -0.7734085917472839,
          -0.08211176842451096,
          -0.9062476754188538,
          0.18457061052322388,
          -0.17100875079631805,
          0.10156036168336868,
          -0.07918314635753632,
          0.03298867493867874,
          0.28678616881370544,
          -0.016308102756738663,
          -0.24790208041667938,
          -0.596899688243866,
          0.10652182251214981,
          -0.7012705206871033,
          -0.0000016271476397378137,
          1.1375030279159546,
          0.5128572583198547,
          0.5341853499412537,
          0.5251623392105103,
          -0.8127056956291199,
          -1.0230096578598022,
          -0.24537810683250427,
          -0.08856940269470215,
          -0.2349099963903427
        ]
      ],
      "biases": [
        -0.23260070383548737,
        -0.22080792486667633,
        -0.20311863720417023,
        -0.16401466727256775,
        0.04436319321393967
      ]
    }
  ],
  "inputLookup": null,
  "inputLookupLength": 0,
  "outputLookup": {
    "A": 0,
    "E": 1,
    "I": 2,
    "O": 3,
    "U": 4
  },
  "outputLookupLength": 5,
  "options": {
    "inputSize": 0,
    "outputSize": 0,
    "binaryThresh": 0.5,
    "log": true,
    "logPeriod": 100,
    "activation": "sigmoid",
    "iterations": 10000,
    "hiddenLayers": [
      60
    ],
    "errorThresh": 0.005,
    "learningRate": 0.0001
  },
  "trainOpts": {
    "activation": "sigmoid",
    "iterations": 10000,
    "errorThresh": 0.005,
    "log": true,
    "logPeriod": 100,
    "leakyReluAlpha": 0.01,
    "learningRate": 0.0001,
    "momentum": 0.1,
    "callbackPeriod": 10,
    "timeout": "Infinity",
    "beta1": 0.9,
    "beta2": 0.999,
    "epsilon": 1e-8
  }
}
